{"layers":[{"DenseLayer":{"weights":[0.28519535,-0.6351106,-0.5111766,-0.19775057,0.8292241,0.6263373,0.88603735,0.43847752,0.117673635,-0.25374866,-0.38785124,0.514163,-0.6178638,-0.42012,-0.07989837,0.13320269,-0.24948144,0.9292321,0.92556906,0.9418571,0.5836735,-0.06592846,-0.5806651,-0.35000706,-0.25847006,-0.4479699,-0.8731799,-0.5241108,-0.4768455,0.9851639,-0.75807476,-0.036273718,-0.72791076,-0.015297174,0.9612805,-0.115388826,0.63253367,-0.67723733,-0.46976078,0.45350495,0.1855886,-0.6696531,0.43307018,-0.71098655,-0.77522975,0.2803054,0.20413075,-0.34492335,0.17467962,0.9098325,-0.42755967,0.5436995,0.6176336,-0.3313012,0.89534354,0.88724566,-0.052826405,-0.673013,-0.67894936,0.5874424,0.36235866,-0.6877891,0.3678948,-0.8217849,-0.8490245,-0.56441766,-0.56884754,-0.66683686,0.80670655,-0.080096185,-0.8656704,-0.6458877,0.99349415,0.3575013,-0.10338402,-0.43761596,0.71913105,0.716145,0.08534973,0.5880107,-0.4023704,0.942714,0.6692412,0.36527467,0.57136726,0.07174873,0.8041157,-0.38403058,-0.8534171,-0.66965836,-0.6409518,-0.1158995,0.32363698,-0.2625527,-0.42890057,0.5929403,-0.8370768,-0.4373547,0.56228167,0.4746504,0.68778634,-0.71129864,-0.72588265,-0.6426508,-0.17978115,0.3721204,-0.8439614,0.6385374,0.022069508,0.888621,-0.17530692,-0.9479091,0.437438,0.1820395,0.07233888,-0.7010137,-0.2370243,-0.114711985,0.8615437,-0.052855637,0.6501129,0.34408328,-0.030219875,0.111478634,0.02257543,-0.6999589,-0.108812824,0.76683944,0.44970188,-0.32998785,0.89874923,0.8292238,0.37140954,0.934702,-0.17452662,0.5661204,0.9143197,-0.9232973,0.7103775,0.06998779,-0.20481491,-0.009772539,0.3014307,-0.5751128,0.15320177,0.029686414,0.49400786,0.35372487,-0.9205698,0.32093805,-0.11559974,-0.5849446,-0.5889232,-0.36227804,0.37678733,0.65168273,0.3690859,-0.38308468,-0.4023406,-0.8142817,-0.86579186,0.16649663,-0.6565544,1.0625074,1.0571531,-0.18170846,-0.48780325,-0.26894906,-0.14089036,0.21508121,0.21256156,0.9211975,-0.8160561,0.9244066,-0.3068183,-0.69380826,0.37176687,0.14504285,-0.48811054,-0.30657613,-0.92662716,-0.46194524,0.041270956,0.48573342,0.38637087,-0.31889078,-0.6119175,0.14715026,0.30465224,-0.1463421,0.22404411,0.6061539,-0.2660773,-0.6194518,0.061967444,0.66083616,-0.0063467026,-0.955238,0.56444365,0.5401941,-0.8114573,0.120489985,0.24007043,0.30958492,-1.0105294,0.20056202,-0.6985727,0.05431516,-1.9151706,-0.81355685,0.32129166,-0.3151789,-0.29916677,0.32373852,1.2276391,0.11451523,-0.15537654,0.6664658,0.17370641,-0.26254994,0.45234644,0.6463631,-0.056049973,-0.22872105,0.075730085,0.37178934,0.24438277,-0.14323351,-0.1665002,0.1263852,-0.7380078,0.3753148,0.51732117,-0.57152444,-0.013865719,-1.6266996,0.053564437,-1.76929,-0.31893444,0.9264566,0.74523556,0.5171127,-0.28732735,-0.021739434,0.33760732,-0.38089588,0.8032557,0.58529603,-0.32768717,-0.48425195,0.21502018,0.29973695,0.56806207,-0.4543146,0.34309307,0.7762959,0.5723901,0.06541556,-0.29246095,0.5683826,0.4936749,-0.034044262,-0.15847781,-0.669376,-1.1121348,-0.6402433,-0.25261307,1.4146104,0.60399175,0.20437488,-0.23014015,-0.38249543,-0.35996923,-0.9626048,0.121307984,-1.1972042,-0.96604407,0.69126135,-0.9626445,-0.6164516,-0.18018484,-0.44654587,0.46085438,-0.12758243,0.26249757,0.5043665,0.033171803,0.3328188,-0.6128844,0.328116,-0.38126493,-1.1830283,-0.16360468,-1.3183436,1.0383731,1.3815563,0.72229403,-0.14712657,0.5766893,-1.0976777,-0.32446676,-1.5021727,-1.0576329,-1.4305346,0.34122372,0.2958368,0.07855242,-0.23017311,-0.58693576,0.9744655,0.2431944,-0.21830973,-0.058811624,-0.021191347,-0.2705702,0.11063242,-0.8156875,-0.49698734,-0.22471125,-0.33260408,-1.1490037,-0.58159107,-0.9784966,1.234084,0.654449,0.47027403,-0.66520345,-0.10773651,-0.628353,-0.8170528,-1.2499444,-0.8837701,-0.5473217,-0.6663569,0.9647049,-0.7891498,0.025569677,0.8467803,0.7784542,0.83202046,-0.015543334,0.4343243,-0.6012554,-1.0449736,-1.2915908,-1.2260503,-1.3642479,-1.3261534,-1.7025442,0.10713258,-0.66603947,-1.1624953,-1.1638963,0.22601096,-0.8599391,-1.6066575,-1.8326131,-0.68454784,-1.1237466,-0.95058405,-0.19039287,-0.17111549,0.287785,0.39178318,-0.7943929,0.022508621,-0.94173753,-0.6182114,0.14130667,-0.42025647,-0.7074211,0.21341503,-1.0093402,-0.84117985,-1.4206246,0.055705097,-1.48797,-1.2445276,-1.2348478,-0.6564065,0.5132749,0.078356385,-1.4623672,-1.4167925,-1.7150743,0.18371262,0.78695136,-0.82651067,0.40159798,-0.20441172,-0.76654214,-0.057515338,0.107877016,-0.26088977,-0.7673118,-0.37553078,-0.5975563,-0.3700612,-0.06344528,0.17069216,-0.09374691,-0.79201144,-0.5840255,-0.30795622,-0.035449117,0.0022801529,0.3429063,-0.4043949,0.5422773,-0.83896005,0.00015635596,-0.84939456,-1.2044365,0.002709164,-1.0671359,0.13521186,-0.41753504,-0.29576296,0.18230769,-0.6947287,-0.22533822,-0.5037415,0.32670906,-1.0127904,-0.9738875,-0.29165334,0.37620452,0.06055842,0.41994357,0.26791403,0.69266593,-1.0958492,-0.913225,0.34504652,-0.64057094,0.021115731,-0.50967866,-0.4763085,-1.4863335,-0.83934903,-1.2432593,-1.0927278,-1.054247,0.1621274,0.78738385,-0.12146468,0.36895978,-0.727732,0.75963616,-0.9208739,0.2141521,-0.31512052,-0.2844916,0.38606215,0.031477455,-0.4173389,-0.32087052,-0.03799371,-0.2623312,0.25180832,0.6670563,1.7002319,0.9104859,-0.26331306,-0.17995092,-0.53718084,-1.932194,-1.4733282,0.01830023,-0.33976778,0.12498498,0.84277993,1.0387572,-0.3029156,-0.26437172,-0.8117298,-0.23815298,0.040922873,-0.9087319,0.68516386,0.60751617,-0.41031995,0.92174023,0.11499678,0.24091437,0.17189476,-0.26054722,1.0387064,-0.2946411,0.49545214,-0.33706295,-1.0962983,-1.6476364,-1.7220311,-0.2666687,-0.9149765,-0.30962986,-0.24448878,-0.1818552,0.43273115,0.23374932,-0.67567796,0.93002343,-0.35634634,-0.502234,-0.99749136,0.60237336,0.36307794,0.7020938,0.17870332,-0.044425916,0.7980964,0.5379222,0.18855956,-0.20709857,0.07703083,1.287613,0.750866,-1.3358141,-0.6902025,-0.89759165,-0.1868479,-1.2646618,0.046261758,0.37332204,0.29227123,0.045288887,-0.4709295,0.61388206,0.8606179,-0.260745,-0.9247626,-0.7264037,0.34030223,0.9686551,0.042906735,-0.88036,0.68508387,-0.11667099,0.20320244,-0.29626384,1.1777691,0.37988973,2.085947,1.2648243,1.6621621,0.5672128,-0.073902085,-0.24975577,-0.17028235,0.38269988,1.1115785,-0.054096825,1.190596,0.90489215,1.2765465,0.8506172,0.8716902,0.5725278,0.26165208,-0.49212575,-0.9301388,0.4534427,0.91205496,-0.22275256,-0.25628284,-0.32670754,-0.37862012,-0.04090884,1.7109644,0.08296965,1.4060436,0.37226164,0.4670625,-0.51678395,-0.6523365,-1.197588,-0.6615658,0.8773406,0.24223883,-0.47975186,0.67791545,0.67328787,1.236822,0.14439654,0.82412505,0.9175233,-0.39771485,0.25998878,-0.25276136,-0.28442183,-0.7543075,0.42845887,0.42296997,0.37254298,-0.20707175,0.9167835,1.2296108,0.92815226,0.55562973,-0.7803929,0.48805168,-0.6624832,-0.0013140723,0.31475917,0.17818141,0.42093894,1.063491,-0.33757558,0.92217815,0.29174644,1.2454838,0.49697283,0.30337554,0.9455175,0.6194601,-0.32111192,0.9028735,0.5798611,0.6441427,1.0475231,-0.6675213,1.1341163,-0.7687596,1.2030061,-0.0033502085,0.3028148,-1.461966,-0.26395807,-0.8703583,-0.22127442,-0.76076746,-0.6102374,0.68543416,-0.728895,0.84752285,0.89223415,0.620761,-0.08708524,-0.4479673,0.33947966,0.9812975,-0.41018194,0.38741136,-0.4303062,-0.34820437,-0.35688862,-0.9334696,-0.17333946,-0.5214076,-0.47133344,1.0982662,-0.36564928,-0.66967374,-1.2781553,-0.22514643,-0.27512082,0.3895948,-0.30605263,-1.3755726,-1.3126302,-1.1327908,0.5561586,-0.8718351,0.8216613,-0.5935303,-0.74981165,1.0469538,0.19416426,0.07706865,-0.65013945,-0.74244714,0.65580153,-0.2812972,-0.207003,0.40231606,0.5223182,0.030612826,0.56915873,0.6560664,-0.9859712,-0.582012,-1.4362848,-0.11118138,-0.65691406,0.57633376,-0.22924727,-0.71996033,-0.5501548,-0.2165083,-0.13955961,-0.769989,0.067801595,0.3197949,-0.6897371,-0.82968354,-0.24061772,0.62791765,-0.09322577,0.24747801,0.37897277,0.29444146,0.6673887,0.8985251,-0.48000723,0.33268103,-0.58999723,-0.15676534,-0.43369064,0.7146598,0.6553175,0.20474243,-0.52571505,0.2316093,-0.14530213,-0.1716769,0.08734281,-0.127169,-1.2291849,0.1933901,-0.34649578,-0.36418185,-0.30450335,0.25314188,0.11253689,0.19412428,0.55023474,-0.98445535,0.39863443,-0.81032085,0.2929151,0.26765314,-0.5772386,0.06987268,0.28016174,0.05454957,0.17858449,0.61307126,0.2236703,-0.17752653,-0.7871331,-0.36823094,-0.073325284,-0.6851712,-0.42544204,-0.30948305,0.64717925,0.5472447,0.91052204,0.10665191,0.021054063,0.34231144,-0.03564644,0.81850123,-0.57884574,-0.3339646,-0.19409728,-0.53839135,-0.32673407,0.5288198,0.5206752,-0.16393518,-0.90453225,0.52562815,-0.76804644,-0.13097598,-0.19488943,0.5606786,-0.089641854,0.2667506,-0.98668027,-0.12394663,0.77931666,0.9021943,0.70968384,-0.5827382,-0.83331835,0.50697196,-0.88434666,0.18374416,0.9380386,0.9468565,0.81340384,-0.55403304,0.9964373,-0.4729991,0.7814536,0.8554535,-0.71308064,0.019553661,0.610831,-0.49666905,0.8888457,-0.7509577,0.99336815,0.5141914,-0.44978237,0.18475032,0.005284548,-0.90510654,0.24304485,-0.1853993,-0.18968868,-0.7042599,0.2778058,0.5620034,0.22336316,0.6152675,-0.90606284,0.8595686,0.30414128,-0.6403029,0.6684489,0.13215137,-0.18856621,-0.83691835,0.7516978,-0.5654347,-0.11532307,0.7523756,-0.4367614,-0.62619853,0.5507319,-0.93146586,0.8570403,-0.56145465,-0.5073296,0.40336618,-0.43167663,0.92117846,-0.16153881,0.55511767,-0.23128033,-0.079456046,-0.7119522,0.11740756,0.4867382,-0.7386825,-0.71294904,-0.24315786,-0.77144647,0.6957197,-0.55457187,-0.73385596,0.44730163,0.52288795,-0.048382197,-0.28125417,-0.5390409,-0.73998123,-0.72532696,0.7535311,-0.15245979,-0.75406003,0.33138916,-0.14398892,-0.26025766,-0.6966451,0.5795723,-0.45822728,-0.43287468,0.39926532,-0.28198978,0.803736,0.43533278,-0.9122901,0.076334,-0.89983535,-0.055880547,0.6732125,-0.68995,0.052010298,0.58448553,0.20433736,0.34640652,0.7355323,0.45627984,-0.49489188,-0.75886387,-0.8435803,0.50460917,0.52578056,0.9404127,-0.0070430883,0.7203246,-0.34222126,0.7900501,-0.53526706,0.34089887,-0.8218683,-0.18911035,-0.6283824,0.582484,-0.61034894,0.9455137,-0.93721724,0.6831188,-0.6192026,-0.5458238,-0.17508698,-0.09866333,0.14368048,-0.21388207,-0.08682573,-0.35920477,0.7279742,-0.23178215,0.97213966,0.27111295,0.19891636,0.66442245,-0.79641235,0.48584464,-0.3611024,0.008021587,0.30318308,-0.12442389,0.3260675,-0.53232455,0.89357704,0.8935664,-0.9168921,0.2393339,-0.3521583,0.61513066,-0.8494077,-0.82611275,-0.4898584,-0.33407092,0.9503551,0.3631786,-0.99217075,0.9557487,-0.84724003,-0.32524407,0.9643202,-0.36575562,-0.44803324,0.16590278,0.7656648,0.01230716,-0.3557036,-0.37615696,-0.756033,0.8956412,-0.19150509,-0.6143532,0.79965997,0.6262611,0.9373551,-0.2380614,-0.29467368,0.6612172,-0.14492154,-0.5237329,-0.1834178,-0.6370556,0.4566895,0.92674077,-0.7375091,-0.7531313,-0.786814,-0.05549949,-0.92464304,-0.47863173,0.3840888,-0.70719314,-0.23209637,0.61960405,-0.10758532,0.65890634,-0.34809408,-0.5165471,-0.1941806,-0.7025974,0.3106238,0.8209759,-0.88563967,0.78222173,-0.93152666,-0.9874499,0.87117386,0.07011899,0.2567887,-0.93192506,0.08022941,0.20019434,-0.09795501,-0.6061112,0.5546173,0.55806696,0.18296808,0.787724,-0.20366812,-0.37580553,0.06409622,-0.042046122,0.5384002,-0.66923183,-0.3771801,0.79033613,0.82981545,-0.43691775,-0.37990624,-0.382094,0.7495861,-0.4915398,0.51595426,-0.5613766,0.8360269,0.7222983,-0.43315062,0.12783347,0.82675844,-0.91035557,-0.9110591,0.22735725,-0.400165,-0.56117,0.03983208,-0.5162155,0.19254099,0.49436232,-0.08768741,0.4707578,0.18670297,0.9637601,0.43722987,0.4329798,-0.34490523,0.2830587,0.13821319,0.69377536,-0.66310877,-0.6379347,-0.06097181,-0.08718705,0.73493385,-0.011269808,-0.072812736,0.6611885,-0.16024363,0.93883026,0.17831495,0.5815229,-0.3448562,0.015447401,0.5434198,-0.9518248,-0.89047885,-0.7626123,0.9597166,-0.4878765,0.029281376,-0.037161343,0.6659115,0.89633405,0.4689076,0.50087464,-0.48873174,-0.22748403,-0.9468441,-0.8982074,-0.94139796,0.76143885,0.22591424,0.49519658,-0.6004259,0.30663738,-0.5431938,-0.026867855,0.5264915,0.5760663,-0.54439205,0.9302497,-0.94231945,0.96245754,0.62744236,0.5441338,0.29601547,0.6538159,-0.4988188,-0.7104945,0.63426167,0.5344712,0.94852227,-0.7602018,0.2860226,-0.52070606,0.9349614,-0.093617484,0.040231466,-0.24657011,0.7205155,-0.806355,0.7634537,0.48675627,-0.61206484,0.3619283,0.34276995,0.46489084,0.98854226,0.011889923,0.9587517,0.16946767,-0.4349918,0.0992701,0.67232066,-0.13330422,0.95362693,-0.19131601,-0.667105,-0.027623795,0.88806874,-0.9417969,0.17246994,-0.36439255,0.14185978,-0.3315381,0.7012315,0.9020183,0.24132037,0.25528264,0.99792004,-0.13066463,-0.053533584,-0.14803097,-0.60506296,0.63513947,-0.24147785,-0.93581855,-0.29355958,0.05046122,-0.16568506,0.4799947,-0.48860648,0.5590119,-0.24201052,-0.19324203,-0.27295798,0.9544134,-0.5006983,-0.86913687,0.20868482,0.80469024,0.009907072,-0.6760297,-0.51469254,0.50341463,0.30070257,-0.23243785,-0.4413426,-0.36612472,0.08101121,-0.68601906,-0.15572341,0.34722075,-0.44734493,0.2141104,-0.5637407,-0.28781483,1.0323968,-0.5777992,0.9807886,0.7091477,0.36484367,0.29607952,0.6177237,-0.29230586,0.9362064,-0.59512824,-0.25339097,-0.58455116,-0.55578876,-0.23234415,-0.54997253,0.93306684,0.5382657,0.8717699,-0.0267694,-0.99235207,-0.9323647,-0.033641066,0.59898585,-0.8295596,0.103930764,-0.03297247,0.21084239,0.3984616,0.8581245,1.033385,0.47480273,0.80734235,-0.43968222,0.09135584,0.06298854,0.30498993,0.74187654,0.87882465,0.3705175,0.53084135,-0.904132,0.044309855,-0.94600105,-0.46183538,-0.82214165,0.68259287,0.13490963,-0.5222422,0.3215207,0.69347864,0.9425758,-0.49254358,0.8566994,-0.7147384,-0.3950234,-0.7117743,0.61986417,0.7380335,-0.2579661,0.44932342,0.0005850928,-0.6238655,0.9942648,0.72628057,0.18996666,0.6131375,-0.41789433,-0.47806722,-0.39368132,0.7705441,-0.20328051,-0.15382934,-0.49821448,0.8588865,-0.33586544,-0.17114392,0.010156021,0.33676663,-0.89789164,-0.9372666,-0.016757686,0.32388446,0.85096204,-0.1611304,-0.62291735,0.51787204,0.8119409,0.9173755,-0.035664346,-0.70562416,-0.057851832,-0.33185565,0.5757574,0.7929484,-0.30737555,0.82797915,0.89386296,-0.81234974,0.8578514,0.866812,0.0971539,0.9020438,-0.7791887,-0.48940858,0.21411549,0.43692905,0.6388504,0.47273773,-0.73643446,0.6685258,-0.59925103,0.59976715,-0.4609127,-0.6365619,-0.053568464,-0.2358185,0.14007697,0.9697663,0.7646869,0.014420325,0.31268018,-1.018143,-0.14273801,-0.8029866,0.9809145,-0.26721722,-0.22391027,-0.5527191,0.7306676,0.92509604,-0.52318513,0.8833443,-0.8854921,0.6947922,0.25049183,0.78132546,-0.116445996,-0.88255906,-0.76827765,-0.096687004,0.9850932,0.9384741,0.89556116,-0.14927639,0.16486156,-0.5703604,-0.01559258,-0.3621259,0.3341926,-0.53485304,0.4849445,-0.5822241,-0.7838276,-0.96211636,0.23226145,0.058552027,0.7915721,-0.5427191,0.90537304,0.28576764,0.90092516,-0.84417254,0.3799543,0.80408436,-0.4066426,0.5081133,-0.87462056,-0.012438147,-0.5756631,0.010119619,-0.02326318,-0.4552982,-0.5753564,0.0505409,0.70527,0.0622509,0.44758502,-0.4188559,-0.01566897,-0.9275227,-0.1403578,-0.7350892,0.6289513,0.7559118,0.78197956,-0.82736325,0.026254345,0.04719389,0.6746559,0.10466318,-0.10304877,0.29970926,-0.23881418,-0.6597679,0.17859137,0.31650522,-0.12782452,0.5972288,0.9301258,0.47264534,-0.31595162,0.15903006,0.804034,0.08845374,0.43128026,0.042015873,-0.14962788,-0.8918487,-0.07851259,0.5900276,0.7018285,-0.023308516,-0.27849746,-0.5805262,-0.19182381,0.5534768,-0.29278857,-0.9133369,0.278195,-0.2816565,-0.7932349,-0.5722931,0.27169856,1.0662336,-0.40514553,0.48120263,-0.04001141,0.79662466,-0.45654836,0.48539916,0.14362304,0.26884738,0.5102848,0.8029065,-0.019320438,-0.5371575,0.16966638,-0.17598394,0.10740113,0.4426005,-0.21213841,-0.68394965,-0.34025258,-0.9520201,0.35463333,0.7457046,-0.09645655,-0.0661956,-0.0001647281,-0.38761726,0.63695085,-0.08100595,-0.5624773,-0.15654072,0.11952806,0.8450002,-0.51906514,-0.005234565,0.8198085,0.9007372,0.82303715,0.79416585,0.88758415,-0.5941354,-0.24482177,-0.7803254,-0.46029902,-0.13164115,-0.5189011,0.62803966,-0.032757495,-0.45085317,-0.012955811,0.939159,0.6600241,0.47678047,-0.7268744,-0.1994975,0.2694857,0.81860274,0.4037359,0.97424346,-0.27129224,0.6027071,0.51092553,-0.5001917,0.55972576,0.17626816,0.22991964,-0.87613326,0.2076578,-0.5917773,-0.97592044,-0.29308796,-0.21030474,-0.25760722,0.7236433,0.7234173,-0.16930676,0.8034111,0.15420312,-0.53631395,-0.13668829,0.30576462,0.8955712,0.7568074,-0.053012718,-0.093691595,0.6913087,0.17566012,-0.24974515,0.37251052,0.871199,-0.6932798,-0.65464514,0.04424969,0.19924484,0.095284894,-0.58035874,-0.46483636,-0.85905075,0.10821509,-0.49966455,-0.34648275,0.55813956,0.19451523,-0.68169403,0.0722026,-0.3622708,0.07425942,-0.9755268,-0.48052558,-0.55321217,0.22466096,0.6082308,0.81316537,0.56642866,0.8629788,-0.031519182,0.33094412,0.71495104,-0.1721472,0.17286819,0.32250452,0.8689933,-0.754519,0.61575365,0.004183531,0.1331191,-0.5486109,-0.77370214,-0.13581371,0.46390343,-0.8130939,0.67386246,0.26596236,0.19713807,-0.51904917,0.22653222,0.66592455,0.08329647,-0.86268485,-0.2929042,-0.60177255,-0.9535539,0.9337458,-0.5064978,0.33978227,0.6844906,-0.86736125,-0.14353247,-0.60859793,0.6619923,0.031068802,0.053703547,0.69975686,0.46513557,-0.32608604,0.1333673,0.90755963,0.79340005,0.5593791,-0.021367073,0.968961,0.8563764,-0.8343251,0.51619935,-0.28545976,-0.34789824,0.1592133,-0.9833884,0.52893066,0.13225055,-0.9904541,0.69575936,-0.108738825,0.42130756,0.55202556,0.12722635,0.37909842,0.3977859,-0.67253065,0.22224307,0.41076112,0.12551188,0.68906546,0.17878675,0.23281503,-0.036135435,0.83606005,-0.5685425,-0.4637065,0.94957805,0.2080493,-0.26143718,-0.25968838,0.52938724,-0.31040335,0.13742614,-0.90445065,0.04398513,-0.977489,0.27875662,0.44459748,0.18908143,-0.50084233,-0.05480218,-0.8236613,-0.1917355,-0.7761831,0.06832528,-0.6535361,0.43696475,-0.18262362,0.024080753,0.957957,-0.07646513,-0.44167066,0.710032,-0.7458868,-0.15145946,-0.26599073,-0.8135915,-0.47461754,-0.010133967,-0.03348359,0.9659548,0.80499125,-0.26776704,0.91986424,0.84608364,-0.24186353,-0.7148164,-0.88439983,0.073842786,-0.25615826,-0.2172091,0.44638896,-0.06269479,-0.81097245,-0.53756213,-0.49181414,0.15500546,0.58482075,-0.25129557,0.9890411,0.23547816,0.6601007,-0.9935427,0.76287794,0.00014822443,0.80815846,0.51638347,-0.021219648,0.5452357,-0.25620627,-0.3729254,0.26187825,0.48962235,-0.28296423,-0.08543021,-0.8088953,0.36599872,-0.32387224,-0.41681322,-0.65870214,0.618881,0.8239224,0.42705846,0.7586634,-0.56982446,0.94156146,0.08151269,0.8335841,-0.70534015,0.8099289,-0.9193971,0.4623835,-0.12575279,0.7594802,-0.60895276,-0.52369463,-0.4320397,-0.14013204,0.33321255,-0.90206575,0.5927038,-0.98277205,0.32142532,0.13271573,0.6291067,0.3958531,-0.6736281,0.8321976,-0.93739134,-0.8334132,0.98481774,0.25790808,-0.2020948,-0.33485174,-0.58718896,-0.13002872,0.53893894,0.9635788,0.81748545,-0.69647944,0.5542001,-0.93441975,-0.35740948,0.19866222,-1.1876787,0.16642822,-0.7586313,1.0462524,0.3939996,-0.49679953,-0.6400499,0.641598,-1.1036841,-0.92048216,-1.1154773,-0.93763626,0.4975486,0.59100217,0.54816943,-0.8252125,0.72772205,-0.80272055,-0.16422296,-0.8654413,-0.60135794,0.57588685,-0.3012777,0.22968817,-0.36052454,-0.69839257,-0.10235389,-0.5898346,-0.62585884,0.2691019,-1.0600615,0.33895546,-0.23287752,0.1414491,0.38808572,0.42482546,-0.4826055,-0.032863636,-1.1685131,-0.53333026,0.082124904,0.7408016,-0.42107236,-0.23399355,-0.5665008,-0.4990015,0.010270245,0.32879323,-0.95950234,0.88995796,0.27929062,-0.48788622,-0.8899061,0.5835834,-0.38990432,-0.68112415,-0.073795736,-1.0630049,-0.92540526,0.30925557,-1.3230144,-0.23476368,1.1298487,-0.18287046,0.37911138,-0.29839754,-0.18057321,-0.012721538,-0.7226845,0.1434422,0.6186212,-0.28780255,0.5246081,-0.7858803,-0.97952,0.29204506,0.9101887,0.63450813,0.6375055,-0.5993034,-0.43259257,-0.95280397,-1.1167625,-1.2938492,-0.8951954,-0.24001133,-0.20629212,0.86524117,-0.48663947,1.0978215,-0.25765345,1.5425668,0.4309933,0.82359284,-0.38044912,-0.58682036,-0.3475409,-0.44925526,-0.58157945,-0.4980709,0.9983571,0.6678407,0.5858486,-0.12751362,-0.53791904,-0.8013983,-0.33160338,-0.43524453,0.7573492,-0.9642283,0.3794485,-0.9917894,-0.13184866,-0.15560703,0.33041137,0.14099064,0.84118295,-0.21735634,-0.19993459,-1.1517686,-0.26315725,-0.79702854,-0.817656,-0.41931397,0.21024704,-0.5701585,0.8491782,0.26857293,0.61968356,-0.78726363,-0.40769592,-0.48241204,-0.94400865,-0.90244496,-0.26486272,-0.36363196,-0.8820628,-1.1652576,0.09903737,-0.8422622,-0.5901816,-0.09562086,0.591746,0.9404092,0.54700613,-0.3127946,-0.1733803,-1.2946231,0.14637579,0.26126477,-0.0064642685,0.74842376,0.6342413,-0.1255871,0.53960115,0.15174004,0.08503412,0.58065605,0.375704,0.2924369,-0.48306033,-0.91005135,0.88443,-0.176422,0.37760812,-0.2662369,-0.47901946,0.052804157,0.06481804,0.8415603,-0.11272104,-0.064937785,-0.14510001,-0.26238206,-0.08841106,0.3916092,-0.8821405,-0.8090875,-0.4759836,-0.1279513,-0.5823694,-0.9924054,0.7992832,0.34153962,-0.34646922,-0.9275842,-0.1662442,0.8030207,-0.52749664,0.28270274,-0.12251908,-0.61161333,0.77302754,0.5879342,0.034091678,0.16525486,0.19791962,-0.7962984,0.96408224,-0.3786796,1.496027,-0.28107426,-0.5758421,0.8331318,0.33196265,-0.9439576,-0.055134397,-0.7256946,0.15847866,-0.18540311,0.9271756,-0.5425978,-0.6569159,-0.73615336,0.2373631,0.16299814,-0.29428503,-0.7933663,0.5006291,-0.17793125,-0.5244867,-0.7325398,-0.5490779,0.95082325,-0.56120384,-0.90565634,-0.9009771,0.5631209,1.4582473,-0.03148038,-0.91891426,-0.96351784,0.17384104,0.5329837,-0.08412488,-0.64571387,0.40054134,-0.9213936,0.7733418,-0.58881235,0.22979829,-0.42708158,0.8234074,-0.6801105,0.9108186,0.4468911,0.13693392,0.03785516,-0.89556587,-0.2628915,-0.305074,-0.48254207,-0.5286206,0.22134307,0.28089565,0.050078716,1.4546301,0.34925005,-0.8895628,-0.80665976,0.6468092,-0.6560176,0.123903915,-0.43824887,-0.052896954,0.0058137113,0.19093418,0.24809141,-0.31277815,-0.86086416,-0.15754962,0.08370404,-0.7583025,-0.6775223,-0.9684035,0.8099147,-0.09081729,-0.21619414,-0.110097505,-0.45702288,-0.19857155,-0.26738825,-0.24334747,0.35147074,-0.16166748,-0.2450064,-0.015037732,-0.5809235,-0.30758575,-0.449,-0.08582769,0.09823282,0.53730047,0.28026262,0.5946574,-0.32386872,-0.087114096,0.8233173,0.6521914,0.6179799,-0.84671694,-0.025379553,0.05745039,-0.52473354,-0.6831209,0.87622875,0.1062271,-0.11790402,0.77956986,-0.77102643,0.52946925,1.2565429,-0.2657383,0.6471382,-0.13837767,-1.1888162,-0.71880704,0.5070007,-0.759759,-0.57478315,-0.3423863,0.039173435,-0.9066029,0.940328,-0.3714428,-0.71019197,-0.37484586,0.9436079,0.5534439,0.6781187,-0.8521435,0.6096004,-0.79124063,0.51946443,-0.76602304,-0.25013867,0.3361599,-0.62038493,0.72690105,1.4385934,0.979561,0.01587234,-1.7125269,-1.2061406,-1.2980304,-1.017797,-0.1002577,-0.53109014,-0.26803663,-0.9449816,-0.4753528,0.6003032,0.062022645,-0.49528146,0.02965515,-0.14920667,0.42768905,0.5821373,0.87902606,-0.24955294,-1.1917251,0.1933734,0.033127833,-0.5586443,-1.3745805,0.33231893,0.5526473,0.44805956,-0.26607662,-0.39479944,-2.0071545,-0.3513181,-0.19425291,-1.0212485,0.6320544,-0.7074707,0.15962681,0.59471095,0.75971013,0.3954638,0.21585482,0.6930882,-0.8858338,0.50998837,-0.6657644,0.73991853,0.19948721,0.555488,-1.0073098,-1.0523267,-0.28835174,-0.123221606,-0.9704413,0.8936336,0.53920245,1.9161724,-1.0140027,-2.0146382,-0.4702924,-1.4581285,-0.71183515,-0.018352704,-0.20018072,-0.4515461,0.7169629,-0.29785982,0.5813285,0.87879074,-0.3681541,-0.6108968,-0.84305644,-0.6182227,0.3505595,0.40502906,-0.19171503,0.47529715,-0.5831245,-1.1573062,-0.079362504,-0.9689169,-0.9539843,0.35771972,0.26097772,0.56347734,-1.2359905,-0.71061563,-0.9310221,-0.821536,0.4654552,-0.4616914,0.106317125,0.6480754,-0.40774024,-0.3525736,-0.18302771,-0.21129034,-0.064623326,0.6064744,-0.36166024,-0.4204721,-0.22508855,-0.9726658,0.90544766,-0.45162776,-0.2624429,-0.094170816,-0.3127277,-0.15125132,0.08389553,-0.24803321,-0.49466464,-0.64432436,0.10512756,-1.1903757,0.087038405,-0.30428734,-0.58769286,-0.69789827,-0.39228904,0.019550884,-0.5887037,0.6598171,-0.59275866,-0.87138534,0.7262275,-0.5785236,0.75366235,0.9811243,-0.5804588,-0.119084544,0.6076556,-0.08275064,0.2842236,-0.53334963,-0.83529216,-0.31550607,-0.18947704,0.7758973,0.13389781,-0.966016,-0.051990975,-0.3254726,-0.65428627,-0.33680505,-0.8813705,0.0019387851,-0.7792074,0.50619143,0.1837552,0.18675373,0.017088272,-0.8032709,-0.92432,-0.47332546,0.5087621,-0.70815,0.85920525,-0.8214993,0.42091385,-0.30406955,-0.6165052,-0.5945895,-0.19422543,1.1421529,0.52844477,-0.6354662,-0.24083193,0.077098824,0.33673182,0.72458047,-0.7169493,0.1880751,0.06303658,0.7567832,-0.97074115,0.6213429,0.003607794,0.8457202,0.6001321,-0.7030769,0.91632867,0.7051525,0.7826319,-0.27914,-0.82025737,-0.6135953,-0.016610017,-0.6250602,0.58306247,-0.4466378,1.0988466,-0.0040840106,0.22587146,-0.80233127,0.6313828,-1.082156,-0.6230266,-0.7148582,1.0919589,-0.2171463,-1.0221016,0.24294241,0.55310214,-1.0106713,-0.74230075,-0.036786422,0.7213699,0.46348247,0.6485486,-0.24545002,0.30244875,0.44061112,0.10955006,-0.5412718,0.3743498,-0.9384035,-0.09262047,0.9641539,0.49522123,0.057957817,0.121392354,-0.114847325,-0.8688874,-1.1419616,0.35263246,-0.8928864,-0.94558924,-0.3574968,-0.28420603,0.5201469,0.7150416,-0.6541899,-0.9054423,0.00074333115,0.42092937,0.41474256,0.75118446,0.15130854,-0.052871943,0.22205853,0.785844,-0.6425466,0.3094661,0.7978454,-0.748631,0.9969593,1.1614087,0.6577679,0.73212546,-0.9089602,0.061243873,-0.49918908,0.8332439,-0.39411196,-0.9856317,-0.21770656,0.06567482,0.6613934,0.6352328,-0.57911175,-0.5048326,0.78808147,0.7666364,0.6060159,0.53328085,-0.7997265,-0.90779877,-0.46951556,-0.37929773,-0.15465227,-0.79331416,-0.6252846,0.66962355,-0.8310132,-0.10658882,-0.59085244,0.1914652,-0.7193281,0.65325916,-0.29719856,0.31267178,-0.31748232,-0.001472642,0.8472508,0.1379769,0.8857367,-0.7628073,0.23050642,-0.49385524,0.6207676,0.060149193,-0.12792683,0.21465302,-0.6501353,0.40137815,-0.43126178,0.3538885,0.20996714,-0.1822288,-0.6764162,0.6815336,-0.49955687,0.95260024,0.9855706,-0.7679457,-0.07946301,-0.12822516,-0.12370837,0.20045543,-0.9237368,0.5588625,0.7579619,0.6242276,-0.9950836,-0.84849715,0.08693409,-0.9514215,-0.81007504,0.2406187,-0.8296087,-0.72433543,0.0067071915,0.48565316,-0.7472255,0.9865906,0.96250224,-0.26910114,-0.4643917,0.994112,-0.7079072,0.69489646,-0.56440854,-0.5967231,0.19218373,0.36257243,-0.4159124,-0.776325,0.22719955,0.962127,-0.08379698,0.09375501,0.58761954,0.6431942,0.43339205,0.5869477,-0.36982512,-0.6567962,-0.035027266,-0.9584968,0.19892383,0.074261904,0.22352958,0.2575946,-0.6173463,0.9308467,-0.18929982,-0.27098846,-0.3933475,-0.04455398,-0.2991429,0.044924576,0.3587838,-0.82259,-0.9255941,-0.5182812,-0.045613356,0.972395,-0.9260407,-0.87603563,-0.97135675,0.35224333,0.6751392,0.400142,-0.24380398,-0.8330548,0.876791,-0.7804086,-0.5299988,0.115722656,0.6145468,-0.112583786,0.7355377,-0.057835054,-0.3513604,-0.48068863,0.79571086,0.75039953,0.16662227,0.39420423,-0.9345536,0.9061594,-0.4976649,-0.65783757,0.42255354,0.3023007,-0.10337805,-0.05066714,-0.6658883,0.19070819,-0.6111273,0.6358182,-0.8942397,0.36133224,-0.86441755,0.3610704,-0.3440807,-0.651454,0.09839066,-0.090254895,-0.73552716,-0.622057,-0.9208803,-0.4817171,-0.6002235,0.7443591,0.3210409,0.26864251,-0.710431,-0.3977575,1.1876545,0.40573922,0.03978668,-0.1980663,-0.29108766,-1.354138,-0.98011297,-0.54337174,-0.7007314,-0.121747814,0.62727827,-0.67883843,0.50410104,0.7246344,0.020842075,-0.34789643,0.54046035,-0.1733369,-0.055456873,0.38304985,0.46878332,-0.43188852,-0.068566665,0.89465326,-0.67654765,-0.18683155,-0.2925813,-0.37045407,0.5818488,1.3081355,0.15134412,0.086083904,-0.3017263,-0.68173474,-0.8675651,-1.3035223,-1.0740083,-1.0515722,-0.60245705,0.9011888,0.68653494,-0.31192347,0.37546778,0.55391693,0.4186698,0.08169556,-0.9037453,0.14910582,0.42126656,0.4879255,0.07086616,-0.8002789,0.33189246,-0.056515113,0.04381634,1.9353908,-0.15197308,-0.5960496,-1.2939817,-1.8556988,-1.5959597,-0.72097445,-0.18296756,0.34349737,-0.61712533,-0.88982725,-0.9159575,-0.9065712,0.7506635,-0.6460486,-0.814965,0.99575543,-0.39101118,-0.93878907,-0.72226626,-0.85174555,0.48247612,-0.03752646,0.12046625,0.2253434,0.69271404,1.1227564,1.3424536,0.53537583,2.2906952,1.813359,1.4931811,1.3335477,0.7662821,-0.27884468,0.66777396,-0.46312174,-0.3153948,0.2523837,0.34803545,-0.7587239,0.82343286,-0.38801733,0.5390005,-0.3968108,-0.52462304,-0.59022266,-0.3052056,-0.8010596,0.23491111,0.03688226,-1.4280034,0.28729066,1.0736086,0.333613,0.37220126,0.610322,2.4388258,2.7392292,3.7511876,3.1930423,3.1134975,2.7504785,1.6216373,0.7591544,-0.34780663,-0.55220044,0.45855793,0.5260837,-0.8340712,0.031705435,0.9434133,-0.6847125,0.62888646,-0.53484565,-0.7092961,-0.66690665,-0.68831825,-1.0529455,-0.39339504,-0.31769797,-1.0388359,0.6137022,0.03282717,1.6164688,2.6005821,3.3444338,3.1292508,3.1510758,1.7906451,2.150245,1.8348436,1.2030094,-0.34551656,0.33489126,-0.7482465,-0.66276646,0.6820899,0.54349196,0.51965904,0.8021289,-1.0026685,-0.87353635,-0.40798882,-0.5974178,-1.4060944,-0.065579355,-0.33569276,-0.13594824,-1.0627402,-0.20107383,-0.2122564,0.649857,1.1806365,2.1965926,1.911299,0.93381983,1.667633,2.3283787,0.49602494,1.0892662,1.3048358,0.114382505,-0.3570313,-0.09228574,-0.03365147,-0.4781013,0.5667445,0.90753525,-0.3153284,-0.7165671,-0.57878435,0.2682634,-0.43927848,0.365765,-0.8550611,-0.9826789,0.51140624,-1.3506174,-0.046317223,0.38417912,-0.18539804,-0.047635935,-0.022278002,-1.2924386,0.65944326,-0.03133845,1.6352748,1.4094337,-0.108612664,0.800716,1.2385534,1.0925957,-0.121582724,0.12733006,0.5761307,-0.6259104,-0.56248176,-0.77143013,0.9527833,-0.6635472,-0.39672777,0.117948815,-0.34036753,-0.6750592,0.009746438,-0.29438695,-0.91994965,-1.1335005,-1.4399861,-1.7729287,-1.9806595,-0.93585527,0.33478904,-0.01407504,0.34364557,1.8918103,1.4229591,0.52078855,-0.5572466,0.6434934,-0.89130646,-0.023102567,-0.95580816,-0.79514855,0.85197747,-0.09759753,0.7056916,0.7217021,-0.44333297,-0.51444006,-0.45995447,-1.0700588,-1.3803737,-1.7134894,-2.46799,-0.43280068,-1.3160201,-1.3052104,-2.0132227,0.70732373,0.90971816,1.28477,1.4949962,0.28340745,0.46568865,0.595257,0.4616561,0.9759812,-0.12842909,-0.7093046,0.83636403,0.065065,0.6831577,-0.81115997,-0.45149028,-0.62152785,-0.3037974,-1.0618626,-1.0568801,-1.0221145,-2.2444532,-2.0183117,-1.5529368,-0.66407424,-1.2382205,-0.5116825,-0.33997267,-0.16255961,-0.56075674,-0.12742165,-0.050645974,-0.30801284,-0.85320204,-0.8672203,0.7209071,-0.25054312,-0.32673293,0.12279415,0.45197582,0.35224092,0.59379935,-0.73419577,-0.27245778,0.101498164,-0.60414165,-2.1343474,-0.112791315,-1.3423122,-0.99454415,-2.5615103,-1.6333468,-0.2168501,0.05733269,-0.06142351,-1.0708405,-0.34270224,0.7020116,0.042464912,-0.39749822,-1.0389647,-0.76793706,-1.051271,0.27275154,0.3877612,0.94468886,-0.3777525,0.078485236,-0.62973535,-0.34527448,0.14629975,0.13506888,-0.39814836,-0.6394385,-1.0149466,-1.2235339,-0.5672651,-1.4181999,-1.1505393,-0.5236097,-0.8127375,-1.0728399,-0.8729689,-0.75775,-0.4168162,0.8189502,-1.7360693,-1.1336875,-0.5960495,-1.1903855,-0.51819885,-0.8607509,-0.63533944,0.30560985,0.0026496102,0.2599304,-0.34076762,0.8541684,-0.06600559,-0.59327704,0.2530112,-0.58774453,-0.54018855,-0.38859954,0.6860867,-0.55435675,0.69499093,-0.21598487,-0.48486093,-2.1073756,-1.8060439,-1.0200226,-0.5602394,0.23561564,-1.3883932,-0.24584371,-1.5307679,-1.0612342,-0.036547773,-1.1183726,0.74057263,-0.8988863,-0.3241698,0.60517144,0.186271,-0.23840228,0.54675096,-0.38640603,0.55835545,0.8725555,0.01878497,-0.28744733,0.68421715,1.1829638,-0.20056227,-0.8184697,-1.0407583,-1.201764,-1.7032776,-0.97967345,-0.88358885,-0.49655178,-0.4404368,-0.24573028,-0.8656953,0.33577043,-1.1001598,0.109057985,0.17751415,-0.72718567,-0.650705,0.41368467,0.6301463,-0.5967997,0.65752834,-0.08314386,1.4477351,0.23077585,-1.2011719,-0.5697384,0.7152707,0.36666766,0.32706138,-1.6169547,-1.2372699,-0.26597396,-0.67608047,-0.357911,0.6757447,-0.98288476,-0.61222184,-0.10135957,-0.10627957,0.08566584,-1.0871364,-0.68952626,0.43805268,0.71299946,0.23088935,0.11142206,-0.86438054,-0.13214865,0.65278065,1.0708935,0.48992938,0.47198057,0.52361864,0.15904014,0.46648625,1.2388741,1.0511613,-0.20880182,1.5578512,-0.3354276,0.4518235,-0.38181922,0.9121087,-0.39235932,-0.3888185,-1.0915502,-0.7283713,-0.4840358,0.29374313,0.86856693,-0.16773255,0.5163153,0.4354935,0.6919272,-0.40064308,0.8541327,0.9182879,0.02522124,-0.008587821,1.5864487,1.414802,-0.17025086,0.8384087,0.26401865,0.45899364,0.33751386,0.2281845,1.701502,0.3821716,0.76231927,0.9188749,-0.17284483,1.0811756,0.36524993,0.6060074,0.40182546,0.27626544,-0.09759101,-0.13290073,-0.6739289,-0.8357699,0.8032922,0.9717841,0.040436737,0.5435919,0.5522883,1.3561796,1.4250494,-0.07411087,0.5355622,-1.1792233,-0.57039094,-0.7887222,-1.0085455,-0.24728584,0.8342777,-0.7359027,0.6689674,-0.024153182,-0.90835893,-0.123445824,-0.59598744,0.36776742,-1.2027913,0.76875937,0.6840693,0.48965108,-0.6571028,-0.63956356,0.8299994,0.5735922,0.3524124,0.71085393,-0.6041943,0.5757355,0.0043991716,-0.0049583167,0.18240401,0.8175579,0.31720048,-0.34006256,0.6843427,-0.72850823,0.27181765,-0.030530885,0.12721336,-0.86431336,0.34155086,0.19242172,0.2544758,-0.39295182,-0.9516819,-0.40561184,0.112324014,-0.43872267,0.76423573,0.30115032,0.17493224,-0.2645061,-0.01919244,0.5749201,0.53103286,0.062622614,-0.6643784,0.36267826,0.5957872,0.959729,0.4816392,1.1704406,1.9963337,0.14326403,1.106482,-0.40991238,-1.2361149,-0.4509735,-0.44155285,0.24542984,-0.47227275,1.0353806,-0.09561257,0.5427742,0.7239433,-0.91380894,0.038347058,-0.29860687,0.675261,-0.3241737,0.15223795,-0.21947454,0.67715204,0.7580514,0.07713104,1.0311309,-0.16687793,0.5537548,0.61581105,0.20863609,0.103157654,0.9191283,0.9604355,-0.8862216,0.3895178,0.09443995,1.7204812,1.1610495,0.600521,0.16872695,-0.55317336,0.9555633,-0.47112605,0.111229755,-0.5927002,0.6332948,-0.8844538,0.7823827,-0.45424888,-0.26560354,0.81877995,0.92389363,0.7023057,-0.16580549,1.4889907,0.01977737,1.2867932,0.7977974,0.5590614,1.2544125,0.41497448,0.65525806,1.1048727,0.14469273,0.9853567,0.44879237,0.6309506,-0.54580057,-0.6661175,0.9453596,-0.72761875,-0.94067323,-0.55213064,-0.6960516,-0.9061632,-0.47254896,-0.947448,-0.2697332,-0.14371671,-0.2739957,-0.6512154,0.12842186,-0.5794772,-0.61026293,1.5863289,0.38165268,0.21457988,0.07665267,0.38111934,-0.2024584,0.010337373,-0.7585488,-0.38807595,0.75202644,0.92680717,0.96206367,-0.22703506,0.89236784,-0.13587736,-0.8999796,-0.25628495,-0.84544444,0.30276465,0.07295632,-0.6092689,0.10465455,-0.6303115,0.6758947,-0.74150866,-0.1541317,-0.71389574,0.8753145,-0.31025887,0.021677215,0.3309914,-0.42357332,0.48452294,0.11279363,0.3338477,0.8692587,-0.27079248,-0.11094739,-0.10071276,-0.33239266,-0.7927244,0.765301,0.13019705,0.46931148,-0.06252909,-0.30303168,-0.80449533,-0.90066886,-0.61705613,0.87922215,0.6426053,0.8146744,-0.5274365,-0.25526738,0.6819582,-0.90336585,-0.043316126,-0.8290601,0.99398685,-0.8447354,0.092119455,0.19076872,0.50230336,0.66342735,0.80224895,-0.43579984,0.79393435,-0.13758922,-0.3994105,-0.05737424,-0.8780532,-0.3611176,0.45681715,0.51184535,0.51610255,-0.7278893,0.6899903,0.737273,-0.785321,0.33745098,0.14023328,0.24697685,-0.07461262,0.08004188,0.3297443,-0.2696687,-0.45930278,-0.28607252,-0.10229005,0.6267728,0.8236741,0.25223705,-0.07056379,0.5272405,0.73159814,-0.41150165,-0.20083427,-0.48331308,-0.98453784,0.7029557,-0.6165321,0.9488802,-0.776006,0.182158,0.74734473,-0.012162685,0.20943975,0.9332514,-0.9743293,0.7172575,0.13016497,0.8630248,0.32870054,-0.99200255,0.32594872,0.45864284,-0.075897135,-0.39480123,-0.74485266,-0.4754362,-0.56612295,0.45923832,0.57233423,0.5369229,0.17857562,0.31872106,0.30163184,0.68086934,-0.90231514,-0.7120874,0.7664664,-0.28281665,0.4309156,0.42568064,-0.721421,0.6095164,0.8871677,-0.6694349,-0.109045394,-0.35289174,-0.5933072,-0.5232682,0.7445625,-0.33384058,0.8728038,0.1251443,0.21167666,0.2646196,0.97355783,-0.68505865,0.741613,0.9306679,-0.32480082,-0.14354874,0.5960643,0.275177,-0.80453944,-0.9417157,-0.8898504,0.60772085,0.07735905,0.66589653,0.9546348,0.95937216,0.6225578,-0.0558322,-0.50727767,0.71061337,-0.6585388,-0.45987323,0.5216577,0.34076014,-0.801187,-0.3389207,-0.28301895,0.5379588,-0.81957674,0.5125199,0.44050437,0.5456003,0.91250587,0.33888337,-0.38195145,-0.3730271,0.89149505,0.36164045,-0.6175451,-0.64693904,0.5046889,-0.39203486,-0.8044569,0.7285977,0.38901523,-0.26412702,-0.88284177,-0.6068489,-0.7102182,-0.5229192,0.11639817,-0.6773394,0.48213333,0.21437798,0.19016168,1.2296493,0.88853073,0.28534538,0.5861096,-0.5944703,-0.13623518,-0.5443367,-0.3332011,0.21319214,-0.17495082,0.074524164,0.66304183,0.15176845,-0.24477959,0.03942746,-0.9540993,0.61199135,0.44519958,0.78643084,-0.056505848,0.6317689,0.7210049,-0.45879284,0.4027285,0.65113616,0.6351837,0.5369261,-0.1207382,1.0114632,0.3752509,0.13884304,0.7207081,-0.32147342,1.1363866,0.77362907,0.88623285,-0.7936085,-0.05806,0.88859564,-0.3232119,0.009067774,-0.3175696,0.65842056,0.4712843,-0.05641457,-0.468251,-0.08113713,-0.18539596,0.10664171,-0.53693765,0.043444544,0.18009567,-0.5478196,0.08619714,-0.5005551,0.9368728,0.68601644,-0.06383376,-0.46666294,-0.7143458,-0.6022925,0.5874996,-0.0003398565,-0.6223052,-0.9577572,0.4998095,-0.30535412,-0.44532442,-0.3720827,-0.22421902,0.25488186,0.11042489,-0.31738928,0.03804004,0.0984611,0.9327942,0.09876845,0.33143312,1.1857847,0.035210304,0.4222033,0.18038754,-0.60814387,-0.06148867,-0.20503424,0.32502586,0.94161445,-0.54148227,0.27803668,0.040342707,0.45959035,0.7609829,0.88145316,0.6740573,0.39420485,0.2959497,0.52504444,0.15859357,0.014354552,-0.0031856846,0.60636383,-0.20118017,-0.62028015,0.65200603,0.82355547,0.9669784,0.83188367,0.42209777,0.49612224,-0.6366566,0.4934016,-0.7276208,-0.48913515,0.82091,-0.10928572,-0.19506097,0.6599003,-0.78934705,0.82672954,0.5033545,-0.17675246,0.04700877,0.5771198,0.14085078,-0.47688675,0.7149209,0.9151145,0.79236156,-0.12301226,-0.8122421,0.21790047,-0.043983057,-0.17012925,0.33318904,-0.092492834,-0.14639199,0.43357185,-0.4596754,0.3408024,-0.11328844,-0.2883185,-0.9173955,0.68662703,-0.30504724,0.56688994,0.8764394,-0.6898506,-0.7978056,-0.102208726,0.53086185,-0.91292953,-0.29510832,0.96317863,0.14872417,-0.26523817,0.8590548,0.9478839,-0.25516847,0.57831895,-0.55678535,-0.6604484,-0.10513347,0.5932948,0.94644654,-0.65488815,-0.3343962,-0.5745284,-0.5504501,0.7827124,-0.20002204,-0.75297594,-0.6514243,-0.24042128,0.12186224,0.38751855,-0.5218619,-0.10912584,-0.23052275,-0.68198305,-0.8261838,-0.059636593,0.79569083,-0.39108405,0.60049057,1.0278138,0.7582344,-0.621863,0.4492955,-0.1917239,0.49004474,0.41691884,0.395885,-0.43994832,1.1419545,0.16750473,0.33758584,0.090058,1.0536423,0.70244414,0.3566962,0.50578946,0.8006125,0.60967964,0.30043718,0.65223926,-0.46658856,0.3091194,0.72686434,0.73210657,0.8541885,0.27590552,0.6955239,-0.45783135,-0.26405892,0.4755946,0.3452212,0.20048086,-0.14211342,0.05112372,0.3468986,-0.4012929,-0.15359813,0.74096906,-0.022520883,0.28222582,0.5817577,-0.6359278,0.2602618,0.026439246,-0.51095307,0.39686146,-0.5994329,0.6432695,-0.76077104,-0.21838076,-0.23100758,0.06305075,-0.04787042,-0.5195265,0.745759,0.34338483,-0.9001675,-0.97246933,0.12169392,-0.30723077,-0.71419275,1.1379077,-0.5192473,-0.76937455,-0.6534377,-0.04648937,-0.07334109,0.14571513,0.76694363,1.1800907,0.24260569,0.8840586,-1.0564289,-0.7970971,-0.362961,-0.4114952,0.2751589,0.44208312,-0.31124234,0.26489973,-0.17063642,0.8726059,-0.34806368,1.0024632,0.44397566,0.89917547,-0.35463122,0.31267434,-0.697157,0.34751678,0.8170817,0.15808575,0.7186471,0.2942941,0.72477716,-0.81648034,0.83692884,-0.7538092,-0.4211072,0.015485403,0.33968613,0.009171814,0.25220165,-0.9248185,0.25575355,-0.11507702,0.9505327,-0.55346084,-0.016389491,0.058318883,-0.542266,0.48427558,0.9235165,0.08822794,0.594439,0.23925513,0.8304365,0.25848344,0.095214255,0.99476,1.2376491,0.9217988,-0.1817262,-0.2258086,0.10077397,-0.7417975,-0.36304173,-0.8492375,0.57913727,-0.0055856328,0.9801092,0.35421073,-0.66154176,0.56498706,0.8578589,-0.061879873,0.24728322,-0.96361417,-0.26461095,-0.70434844,0.56929356,-0.031104462,-0.020056402,0.0401979,1.0149466,1.0282745,0.8551562,0.07365446,1.203062,1.0084987,0.9111324,-0.41552743,-0.23496589,-0.10061283,0.32776687,0.6536451,-0.7863068,0.7240127,0.96507394,-0.84599036,-0.55768144,0.72149384,-0.43389106,0.28907657,-0.8159224,0.35331637,-0.74873936,-0.8008183,0.40831143,0.11703824,0.14531326,-0.1395955,0.51649445,0.38036767,0.22417028,0.9209246,-0.25461772,1.0045278,0.6977085,-0.40626597,-0.11400974,-0.557083,-0.5225953,-0.8028931,-0.3429286,1.0867629,0.4319109,0.0931621,0.72137713,-0.803844,0.9511328,0.5260484,-0.16447678,0.2218182,0.41324052,0.486692,0.91299886,1.0042264,-0.466916,-0.18449079,1.0955808,-0.032338254,0.85974354,-0.7364507,-0.1983168,-0.5708985,0.22917207,0.49136332,-0.2415203,-0.4731049,0.38086566,0.65209216,-0.44117966,0.54045326,-0.7620467,-0.2157372,-0.89103615,-0.43256998,-0.6637926,0.23026279,-0.14453174,-1.0181066,-0.5614073,-0.59431034,0.71411985,-0.1288606,-0.1475415,-0.050490946,0.79830676,0.14954554,0.66568816,-0.6500022,-0.68191314,0.13328062,0.2995595,0.20068453,-0.2408525,-0.9357647,0.008667342,0.2276286,0.22616073,0.06756947,-0.8071892,0.2448056,0.66323197,0.043775797,0.9263563,0.8497555,0.22329737,0.077151306,-0.8024572,1.0267648,0.3661948,-0.82804745,0.94447196,0.9465284,0.29953218,1.0196675,0.24375898,0.18742682,-0.7567563,0.6985808,0.024340034,-0.48131242,-0.024874257,0.28075433,0.2807852,0.6275736,-0.5058999,0.7865043,-0.39993784,0.66430324,0.94670004,0.19693947,0.008830786,0.8588965,0.36885792,-0.74179053,-0.8427557,0.96203333,-0.39134762,0.1948809,0.6803243,0.0018544433,0.070141256,-0.058334105,0.783065,0.11506131,-0.7121403,0.16436248,-0.63310856,0.80416465,0.35343066,0.614855,-0.6358731,-0.23809288,0.9308642,0.14629117,0.432381,-0.228892,-0.027528048,0.322011,0.8306558,0.8511796,-0.26403534,-0.20450586,-0.22571972,0.4334085,-0.5151852,-0.8401411,-0.8844834,0.80386084,-0.5528127,-0.31266698,0.28781682,-0.40255404,0.745667,-0.33566228,0.8890176,-0.026879448,0.7377645,1.0090472,0.8237083,1.0348065,-0.42031878,0.8162483,-0.33359206,-0.90461624,-0.8787489,0.12113905,-0.33645225,-0.34087372,-0.4073583,-0.089360446,0.9551567,0.6436324,0.36289176,-0.3437317,0.15521331,-1.0023463,-0.7572462,0.115267985,-0.52571964,1.0257566,0.99039084,0.57988614,-0.028609192,0.9696128,0.66762906,0.29516077,0.31626946,0.5646476,-0.8490259,-0.86242133,0.7736157,0.84825385,0.5590644,-0.013098955,0.8231809,0.27303004,0.3351872,-0.17948079,0.5477472,-0.14915387,0.7015666,0.29551673,-0.67346346,0.31620714,-0.89481926,0.83660233,0.26411277,0.9714457,0.43975803,-0.9482967,-0.15569045,-0.915623,0.6843479,-0.038084865,0.2943539,0.01800197,0.64321053,0.025253953,0.72613513,0.9418628,0.13881612,-0.59926534,0.9992709,0.7775042,-0.32565522,-0.7464962,-0.684193,-0.26403534,-0.49152657,-0.445802,0.57462984,-0.87128055,0.5219587,-0.9356626,0.1812718,0.59619474,0.14257307,0.16114904,0.38358465,0.9051485,0.42679957,-0.2645135,0.41194844,-0.7032777,0.8989522,0.16138263,-0.12865424,0.12155223,0.27162242,0.28082657,0.6782074,0.35117054,0.066435575,0.6029422,0.34649992,-0.719172,0.56302047,0.7994592,0.7546053,-0.76849866,0.59773177,-0.005967824,-0.59499174,-0.18634439,-0.8030719,0.35694444,0.0048991553,0.44595656,-0.21973325,-0.2724162,0.6786758,-0.51225734,-0.17766023,-0.71522784,0.18003511,0.17895913,0.50055337,0.47653532,-0.9502213,-0.0979774,-0.12715364,0.3052709,0.18024015,0.3709848,-0.5761082,-0.656775,0.34026313,-0.38590217,-0.8360162,0.074818134,0.8839288,0.024686813,-0.71365714,-0.57501006,-0.06278515,0.69387436,-0.30164313,0.28339958,0.6361482,0.23712397,0.47151113,-0.63716245,-0.13082123,-0.043634653,0.35926628,-0.42216563,-0.29157758,-0.6096554,0.7461698,0.25443864,0.09535241,0.11841321,-0.92117715,-0.79210234,0.4273324,0.4540074,-0.043812037,-0.28649497,-0.16722989,0.9864855,-0.7287586,-0.6852479,-0.76082563,-0.078999996,0.56326866,-0.70682335,-0.42562422,0.19856066,0.9323589,0.28837442,0.8286669,0.6825285,-0.52433443,-0.5951195,0.043529034,-0.5198016,-0.20053792,0.83800125,0.689898,-0.85419226,-0.95077395,-0.11363806,-0.33969837,0.18326448,-0.9785156,0.9750081,-0.8294007,0.17084461,-0.76250553,-0.5949944,-0.81872773,-0.17848775,0.8118814,-0.004550402,-0.5191653,0.05361345,0.99452263,0.51938486,-0.7404403,0.30895925,-0.46137118,0.45359445,0.5814128,0.8173883,-0.00070142746,0.20389295,0.9351488,0.049912725,0.07739687,-0.6176984,0.7328919,0.69450533,-0.17516537,-0.7444078,-0.014484581,0.73561245,0.58080965,-0.11536205,-0.5449138,0.47281379,0.15657623,-0.12666146,0.71464354,0.062281754,-0.7179086,0.28823912,0.3439925,-0.71901625,-0.992383,0.8203006,-0.106839895,-0.83506656,-0.4614842,0.9057777,0.6483252,-0.8050668,-0.26275977,0.6130597,-0.7523395,0.20120387,-0.53613824,0.46626675,-1.0135583,-0.6651023,0.42845705,0.8641125,-0.33132055,0.5184905,0.7663323,-0.9747801,-0.42652166,-0.59210026,-0.5505877,-0.34632808,0.9452969,0.66456336,-0.5760572,-0.40972066,0.5516083,-0.6733084,0.715008,-0.38098693,-0.1716218,-0.85201067,-0.034188546,0.35792732,0.6492243,-0.9859523,-0.51017314,-0.28367886,0.6553582,-0.33399364,0.7188604,0.19215779,-0.4511534,0.018804997,-0.22679022,-0.9941211,0.5757511,-0.32760635,-0.1647218,-0.51951873,0.0016800902,-0.25577363,0.29515815,-0.8150468,0.7549777,-0.90890193,0.6592388,-0.5001743,-0.66810656,-0.47928816,-0.22968484,-0.44561654,0.78895825,-0.62345403,-0.89522016,0.40096608,-0.1158482,-0.75354856,0.24243955,-0.76713526,0.4431785,0.084339105,0.15543897,0.653516,0.6774437,-0.6824594,-0.32429448,-0.39455134,0.30033645,-0.8616948,0.8937347,0.9032581,-0.8886919,-0.71635056,-0.13064289,-0.44195783,-0.5198107,-0.7120717,-1.0017582,0.6993917,-0.41085428,-0.5709084,-0.66008276,-0.5708893,0.14003417,-0.58962643,0.2883816,-0.030808365,-0.95571357,-0.026099097,-0.28987306,0.08805852,0.71405447,-0.84349334,0.9713614,0.50211805,-0.27211,0.19129269,-0.9241073,0.21608615,-0.9923308,0.6695374,-0.88459986,-0.6010149,-0.05533692,0.43053097,-0.5125828,-0.028944815,0.30093762,0.39622936,-0.6738909,0.8379714,0.5245106,-0.90187305,0.0072038653,0.31850925,-0.1726627,-0.8044854,-1.1006224,-0.7595573,-0.42343155,-0.9000703,-0.09912212,-0.7517443,-0.91158706,0.42025307,-0.9620119,0.4768424,-0.08260584,0.9607862,0.79143274,0.9634049,-0.68936545,-0.4552142,0.88403195,-0.42741096,0.25039628,-0.2749082,0.46166563,0.044828806,-0.7824844,-0.97085804,-0.19614358,-0.5269037,-0.09711559,0.7195506,-0.060454637,0.28925127,-0.7971494,0.17167157,0.32070315,-0.5360204,-0.18284805,0.5213883,-0.25994438,0.72588325,-0.6295998,-0.41464114,0.7603193,0.8990487,-0.81732446,0.5252485,0.49088246,-0.9203771,0.11147099,-0.31460908,-0.14597668,-0.77550405,-0.583667,0.113382265,0.29947457,0.09501402,-0.6802257,0.15168631,-0.14837788,0.6538501,0.5231837,0.15803793,0.15118134,0.6860945,0.5091613,0.20691268,-0.43323126,0.3901372,-0.55760837,-0.3107581,0.2141586,-0.47668463,0.9865981,0.2848342,-0.7590328,-0.35075003,0.41776043,0.6970189,0.1051657,0.06949383,-0.6032305,-0.8737813,0.8642908,0.8635856,-0.15262564,-1.1683024,-0.38806453,-0.5062789,-0.6680166,-0.89411503,0.2759609,0.061271086,-0.79771453,0.35656768,-0.6795227,0.15063906,0.6461849,-0.2657719,0.6584873,-0.012887369,0.30425084,0.6588213,0.9030551,0.1375496,-0.9384864,0.37449676,-0.7321543,0.6673346,-0.45104066,0.20734589,-0.17079815,-0.41713992,-0.39300257,0.79004246,0.6888192,-0.5661774,-0.47184646,0.17006962,0.84356546,-0.7555511,0.39059448,-0.46699333,-0.71396947,0.64673615,0.4216187,-0.7876513,0.98491234,-0.82436806,0.43557566,0.41121387,-0.5248474,-0.4940647,-0.44728675,-0.3823438,0.43620506,0.12671192,0.14668953,-0.47458726,0.29628682,-0.15603183,-0.060407154,-0.34481418,0.35320663,-0.48995054,-0.7982539,-0.5057047,0.19771357,-0.19277085,-0.9598859,-0.6624534,-0.9092709,-0.9989128,0.949826,-0.9074545,-0.072431564,-0.06467983,-0.05107105,0.06286273,-0.5192521,-0.5626872,-0.59412074,-0.07647791,0.49556747,-0.66481775,-0.56651473,-0.73729116,0.535149,-0.14300482,0.2168156,0.7850569,-0.5779361,-0.5071849,-0.737551,0.59417456,0.94514656,-0.49615297,-0.15785828,-0.45697543,-0.70579034,0.61494684,-0.65124035,0.24928832,-0.28201866,-0.0033755973,0.045141,-0.36279726,-0.7464823,-0.20768292,-0.52186143,-0.40898988,-0.4188748,-0.2059714,0.42128187,-0.013550448,-0.35269305,-0.81786585,0.28261665,-0.22302534,-0.9433231,-0.07484452,0.54522336,0.19694862,-0.3691141,-0.9879538,0.7640312,-0.67803484,0.676378,0.89221555,0.50538874,0.75746226,-0.7248175,-0.56131333,-0.28604868,0.95623505,-0.78310156,-0.5727699,0.7702034,0.20673947,-0.010517764,0.30416593,-0.30178744,-0.6951104,-0.999897,0.368061,-0.32762456,0.68759817,0.74326456,0.3823624,0.36028627,-0.5489076,-0.62565327,0.9335773,0.7230594,0.44208106,0.7000034,0.6678936,-0.92523146,-0.80639505,0.8321856,-0.73286015,0.43504235,-0.19410914,-0.6642528,0.16570798,0.21711943,0.35456118,-0.24948078,0.34010863,0.826961,-0.11846186,-0.96712846,-0.19750862,-0.92705595,-0.124114804,0.6769501,0.36753306,-0.22624782,0.097029395,0.6288091,0.44298542,0.88355845,0.75260055,0.708114,0.51789,-0.67824554,0.9054172,0.9475733,-0.09787514,0.94210356,0.9118395,-0.79881895,-0.70683783,0.023595067,0.7611166,-0.9924668,-0.4923438,-1.0101374,0.1495667,-0.5831074,-0.22927943,0.2534443,0.83166206,0.8700129,-0.05556488,0.22208476,-0.84127486,0.8210676,0.4990129,0.3731225,-0.522708,-0.63458943,-0.85623837,0.7597439,-0.49359894,-0.7072989,-0.78348345,0.85509557,-0.6730463,-0.5187828,-0.49849308,0.29938656,0.2744625,-0.7103261,-0.2752344,-0.6635146,-0.4745555,0.11444992,0.07606814,0.6528866,-0.8286639,-0.774071,-0.081411965,-0.99887663,0.51548666,-0.64691466,0.39121687,0.2854195,0.3767536,0.36757016,-0.19879055,-0.034362555,0.6326724,0.46919182,-0.37799662,-0.9479918,-0.5201366,0.08497482,-0.65853477,0.15287416,-0.4435104,-0.30407074,0.81406677,0.56005347,-0.67211777,-0.07104752,0.40587386,-0.5813707,-0.5897131,0.0012228027,-0.06782403,0.71937776,0.47491312,-0.8834572,0.95983964,-0.8958172,0.7400054,0.17932868,-0.30150843,0.45577192,-0.8185965,-0.15996146,-0.9733559,-0.025355317,-1.020046,0.005866934,0.057138428,0.8220619,0.9419885,-0.4055646,0.779561,-1.057611,-0.5362617,-0.97699314,-0.7515354,0.76870435,-0.1120143,-0.9221844,-0.91718465,-0.513317,-0.18660478,-0.27222058,-0.015092681,-0.25734112,-0.0954841,0.38104057,-0.71842957,0.7984803,0.25079355,0.88692546,-0.7956477,-0.54528075,-0.8752407,0.8529241,-0.33428356,0.68600565,0.118842416,0.71172583,-0.19148627,-0.9043201,-0.094438694,0.3607445,-0.25625584,0.085135974,0.94758564,-0.9205523,0.9620435,-0.6963588,0.7451545,-0.32520643,-0.6648538,-0.1310738,-0.18007857,0.94289804,-0.8108363,-0.9631283,-0.34578538,0.7631867,0.8275,0.18482848,0.58078134,-0.096402355,0.85872555,0.70097554,-0.62840146,-0.8209629,-0.3803077,-0.11388948,-0.72525626,0.8863157,-0.3379402,0.038054835,0.37290895,0.2928713,-0.8451378,0.6542757,-0.076671444,-0.5742436,0.5290474,0.20936166,0.026379311,-0.052417994,0.001499176,0.7035885,0.21554232,-0.972061,0.15078565,-0.78953314,0.4945599,0.33494097,-0.20752685,0.7682915,-0.6156813,-0.37207404,-0.93972754,0.9500472,-0.54288757,-0.6018547,0.12567005,-0.97765493,0.5489641,0.7587328,-0.016653106,-0.044345986,0.7743791,-0.85917604,0.48591584,0.10533838,-0.67820144,-0.29121304,-0.98610187,-0.046723127,0.81905174,0.9590199,0.18293047,-0.32247615,0.021837944,0.41759637,0.08582563,0.31409526,0.39711523,0.4198476,-0.4715048,0.43220946,0.009479177,-0.08995352,-1.0916445,0.5456814,-0.37750205,-0.9328637,-0.97539353,-0.27387446,0.51549506,-0.97663075,0.4231924,0.96130466,0.2023952,-0.46486926,-0.38122845,-0.052934647,0.7477832,0.29172397,0.58379865,-0.9385712,-0.7361529,-0.5635388,0.56236815,-0.30227208,-0.1526413,0.41149,0.5929071,-0.29787305,0.82848084,-0.8799831,-0.5132736,0.6174799,0.9028728,-0.014940841,-0.28374356,-0.83154863,0.57460165,-0.6353936,0.9129932,0.20089507,-0.965009,0.32119632,-0.21567559,-0.18345785,-0.7614162,-0.19674778,-0.2636106,0.3296361,-0.7746892,0.47643828,-0.6666062,0.64531565,0.059818506,-0.37188196,-0.8428982,0.9860574,-0.5433746,-0.36963123,0.8889182,0.3164885,-0.96835536,0.44620937,0.8702224,-0.21990724,0.45899367,0.23904872,-0.5924258,0.051391363,0.07776928,-0.6156051,0.56994677,-0.094019175,-0.06575513,0.8107071,-0.9676001,-0.23461533,0.724308,-0.032870054,-0.0033710003,-0.91003656,-0.8398354,0.59997463,0.87948275,0.21859717,0.44869423,-0.3368392,0.36680174,0.47905993,-0.01923275,0.8879349,0.22404075,-0.5332608,-0.99061704,-0.9708202,0.59320307,-0.30762172,0.39597607,0.6150348,-0.13565946,0.1551776,-0.51603985,-0.8805413,0.29807425,0.32867408,-0.22085738,0.12949413,0.7051393,-0.0274597,0.0012411985,-0.8842106,-0.6500957,0.3661879,-0.40582082,0.23103902,-0.79493886,0.13978055,-0.42873156,0.36229885,0.08620742,-0.54628986,-0.47882527,-0.9190378,-0.4753182,0.87872887,-0.84869695,-0.5486548,0.50737405,-0.42755675,-0.71781206,0.15892863,-0.23382692,-0.86639786,0.82988906,0.6551674,-0.7485443,-0.34094384,-0.38801965,0.88794494,-0.7674373,0.050975304,0.27272132,-0.7238019,-0.83177376,-0.36843988,0.7343531,-0.6983902,-1.1438321,0.5991273,0.45796284,-0.7184167,-0.5701492,0.9772503,0.52576065,-0.96402407,-0.60920906,0.5092888,0.60798526,-0.4501624,0.97004414,0.22450386,0.548811,-0.8401075,0.29006955,0.82313573,0.6936128,0.9608542,-0.15112387,0.8695387,0.0910256,0.9447663,-0.8302869,-0.6354381,-0.11804901,-0.82084584,-0.07655318,-0.8428964,-0.5730518,-0.4465521,0.628902,0.54966736,-0.011235112,0.8582548,0.32903242,0.7376387,0.74194646,-0.40373874,0.94445485,0.070007674,0.31324133,-0.7393842,0.8055563,0.26171774,0.7268144,-0.4285438,-0.62936753,0.7485888,-0.24145497,0.60908467,0.32552442,-0.7668208,0.19510329,0.19032115,0.7098597,-0.3201877,-0.3454033,0.38962552,0.9143578,0.2533583,1.0048344,0.60231227,0.9975073,-0.03614497,0.13914657,-0.61855495,0.15027215,0.21047366,0.54842687,-0.9220254,-0.97635597,-0.11069572,-1.0615962,-0.5730607,0.49726313,-0.679688,0.1661551,0.7621688,0.7403853,0.5449581,0.2532549,-0.8278998,-0.4051748,0.8142261,-0.6979264,-0.29449463,-0.55414474,-0.40715557,-0.6294578,0.5250769,0.7993073,-0.45626426,-0.1934421,0.6492851,0.06633194,0.7166917,0.2817954,-0.04248027,-1.0745088,-0.38447586,0.4435707,0.44529837,-1.5231408,-1.4344178,0.2061746,-0.5929754,0.41561836,-1.0050415,0.34750855,-0.14704116,-1.0102519,-1.0005713,-0.82704103,-1.0589423,0.30866995,-0.86670125,-0.42016003,-0.85220796,0.5302181,-0.5626905,0.8564962,-0.16569321,-0.33708853,-1.068989,0.486625,-1.1108581,0.63058764,0.6043791,0.3074936,-0.4618937,-0.5973227,-0.24904144,-0.53688985,0.82079136,0.7292883,0.14654237,-0.40945023,0.09059465,-0.6343628,-0.08226819,-0.43531114,-0.2466901,0.34535664,0.19161756,-0.24012509,-0.13956615,-0.06231082,-0.14888793,0.13298066,0.058174193,0.5762875,-0.811346,0.5316464,-0.20140395,-1.043591,-0.7278043,-0.65290064,0.08987964,0.33751428,1.0636606,0.36567315,0.85389143,0.18020466,0.60676855,1.0821894,-0.4389106,-0.8726852,-0.810312,-0.070317835,-0.004986365,-0.6303355,-0.07362333,1.046916,-0.8447517,-0.4419852,-0.41315114,0.8199048,0.5336697,0.7258234,0.14540522,-1.1780887,-0.10455743,0.15330042,0.53088427,0.24025397,1.4527992,0.2737167,0.6164352,1.2381428,-0.47192138,0.59697634,0.22366482,0.002110308,-0.1502016,0.0005340193,0.3152012,-0.4489794,-0.7230742,-0.83975166,0.37843645,0.7299446,1.0280049,-0.21475945,-0.4035603,0.7983957,0.0218955,-0.030394783,-0.17353971,-0.72567487,-0.4075156,-0.31132996,0.16302001,0.13088894,0.38110232,1.3159875,-0.45378232,0.46135885,0.5952942,-0.11754223,-0.47248006,0.73703593,-0.43822742,-0.6388709,0.8352972,-0.33504263,0.6826999,0.78291816,-0.792753,0.08582542,-0.8908154,-0.01632993,0.59754676,0.71312475,-0.73423624,0.17008647,0.20547844,0.6132652,-0.6900962,-0.4753799,0.6665662,-0.6273925,-0.44680667,-0.21197483,-1.7191731,-0.20044827,-0.900015,-1.3005219,-0.71287173,-0.59207726,-0.6960591,0.74687123,-0.7730531,0.31620952,-0.11379201,-0.6965532,-0.61601645,0.77557033,0.2735166,-0.47932377,-0.4128525,0.20561552,0.24461032,-0.51533246,0.3829773,0.17584208,-0.61008584,-0.49011797,-0.014657685,-0.629003,-0.6192532,0.1357216,-1.5584848,-0.09826115,-0.97341496,-0.10316603,-0.07464499,-1.5616467,0.21850955,-0.29956427,-1.01742,-0.64038795,-0.5952973,0.80287546,-0.8187303,-0.61639506,0.38586837,0.9171193,0.46596408,0.7441019,0.8369465,0.39496,0.20523831,-0.16124885,0.4769023,0.35175875,-0.81325334,-0.41407612,-1.467962,-1.2468828,0.23368973,-1.4754219,0.1453896,-0.4062452,-1.1158476,-0.8954986,-0.030301265,-1.4365793,-1.0744071,0.36578295,0.99766195,0.27553293,0.640305,-0.80920285,0.76928943,-0.21359572,-0.8074579,0.4913469,0.5719982,-0.101449184,0.27752462,0.08733222,-0.10818755,0.23165683,-0.15253574,-0.7339771,-0.30106187,0.4915605,-0.17000209,-0.14434761,0.4585894,-1.1238306,-1.1062272,-0.06877191,-1.5816224,-1.6722065,-1.104485,-0.014660599,0.86302084,0.30837497,-0.59286904,-0.4986236,-0.38398203,0.20676292,-0.68679136,-0.11805606,0.47867256,-0.56466234,0.5599635,0.116731584,0.1091647,-1.0244055,-0.18582188,0.78602076,-0.37961888,0.087477855,-0.8983775,0.3030205,-0.554594,0.7427094,-0.16102664,-0.35753548,-1.2750424,-1.4516144,-0.94274133,0.39109394,-0.3279301,0.62883687,0.24635933,0.39958167,0.4570154,0.14592351,0.26212215,-0.23960924,0.0256997,-0.8056429,-0.541915,-0.0210567,0.23142025,0.27248707,0.9385595,0.38672113,0.50556827,-0.895081,-0.003349896,-0.38701224,-0.17341992,-0.44613025,-0.6981788,-0.6673963,-1.6235576,0.0930458,-0.9481325,0.35955632,0.2318177,0.33977762,-0.6376923,-0.78984666,-0.44500962,0.75040853,0.67098475,-0.18341501,-0.5468435,-0.90592605,0.62156904,-0.0023561867,0.8761591,0.8940336,0.72071624,0.44897157,1.4187778,0.34396717,0.18364921,-0.7523876,-0.5534885,-0.9407638,-0.3954061,-1.0880522,0.14152046,0.17449294,-0.5218947,-0.6913764,0.8484656,0.8534017,0.45025986,-0.44165614,-0.54950756,-0.69379973,-0.7035742,-0.58207536,-0.4260172,0.1430718,0.42292902,-0.3532849,1.0064124,0.44109473,1.5049944,0.9349957,1.4406363,-0.29821426,1.0440651,-1.0232785,-0.28085932,-0.16436839,-0.28139266,-1.0022247,-1.0708982,-1.2410576,-1.2261192,-1.1476616,0.9374791,-0.82966125,-0.63370913,-0.24436742,-0.122006916,-0.0059139496,-0.5725603,-0.6068058,0.83269906,0.58514285,0.49360216,0.8542004,0.41223922,1.0265747,0.464567,1.2491144,0.18289371,-0.30929476,-0.5556706,1.057316,0.6661968,0.16507441,0.3173917,-0.80996716,0.5406534,0.47499925,0.28165403,-0.19581024,-0.20869198,0.113244355,-0.88723797,0.22791997,-0.9009292,-0.9284026,-0.9355633,0.88414896,0.03603111,0.31483284,-0.24231191,0.7482323,-0.7894539,-0.12779763,1.0913974,0.29729122,1.1677064,0.24672058,0.13011539,-0.52834433,-0.17388882,-0.6456739,0.09108303,-0.75623983,-0.8166596,-0.5229012,-0.32272327,-0.44452623,0.16323355,-0.668252,0.9509393,0.8107055,0.73458874,0.23095368,-0.53507924,-0.7873164,-0.41739652,-0.10720831,-0.80913365,0.70716786,-0.52967703,0.63361853,0.33876684,-0.4838366,0.2617624,-0.7796784,0.8986272,-0.32796478,-1.046113,0.14056164,-0.37242898,-0.042941157,0.54727894,0.042652756,0.20463572,0.63619727,0.6017411,-0.07115223,0.47001904,0.8970709,-0.25990206,-0.08608675,-0.6693044,-0.2525292,-0.826942,-0.43221948,-0.86430794,0.2281078,0.79395103,-0.1576016,0.2592744,-0.5589852,0.24230471,-0.09617993,-0.5188288,0.032496557,-0.5839519,0.08543647,0.22200634,-0.24115366,-0.43721986,-0.07517484,-0.7863669,1.0566792,-0.062075444,-0.8356924,-0.17342804,0.3454899,0.8976954,0.3486793,0.4696722,-0.34824085,0.16094212,-0.8575096,-0.2987295,0.6715159,-0.6068443,0.5426064,-0.71425,-0.85360855,-0.24973024,-1.2665964,-0.029033758,0.7974268,-0.84271085,-0.25787547,-0.011518393,0.0073855664,0.2047345,-0.62973386,0.19671354,-0.36671376,-0.52928656,0.16141851,0.38106018,0.06921037,-0.84361595,0.20636368,0.37131476,0.5975323,0.14183916,0.6838471,0.47582126,-0.14597195,0.313022,0.5613525,-1.0039122,-0.9901524,0.4956691,-0.318594,0.7392163,0.43746832,-0.6086672,0.2554265,-0.62930954,0.9645732,0.8964548,0.7876734,0.3105289,0.79439497,0.48477572,-0.5834667,0.7113165,0.66221744,0.83087665,0.33639574,-0.014764786,0.07617164,-0.61810595,-0.9054141,0.38450998,-0.12075865,-0.0647963,0.3453251,0.64162284,0.7403128,-0.043264173,-0.4552983,0.18383539,0.9180323,0.18596524,-0.077172585,0.38176095,-0.03379567,0.6222202,0.49276415,-0.82126856,0.28784707,-0.75379497,0.6338385,0.13737218,-0.21319862,-0.6661742,-0.97380924,0.20423985,0.9720168,0.41385794,-0.6957745,0.3368689,-0.26584685,-0.38963988,0.8539416,-0.03643412,0.41664514,-0.56193787,0.712744,-0.48289746,-0.4642749,0.9711284,0.6768262,0.95147496,0.052352693,-0.6911367,0.9590978,-0.9758995,0.16058567,0.9734435,0.1645861,0.08803053,0.7644376,0.9227984,-0.6553452,0.12972379,0.019598722,0.39329076,0.9501295,-0.063795604,0.17453738,0.08042768,0.040302984,-0.1923296,-0.17434299,-0.20123892,-0.6780408,-0.67678386,0.38528547,-0.1698234,0.26444247,-0.27351594,0.6174771,-0.40338942,-0.38791645,-0.56391466,-0.29701865,-0.86572975,-0.19026883,-0.9881294,-0.08209443,-0.8479934,-0.8744323,0.90588737,0.3575883,0.5811608,-0.46731973,-0.8954053,-0.011392832,-0.88649344,-0.6428778,0.22375822,0.18231177,-0.70356154,0.5459826,-0.08120108,-0.5631714,-0.8729379,0.49807644,0.64329886,-0.16805053,-0.4708395,-0.6967068,-0.23538613,-0.015460253,-0.666065,0.11838865,0.17702603,-0.31386995,0.010896683,0.014379501,-0.5367141,-0.10908675,0.5098033,-0.47558045,0.69146585,-0.53706336,-0.49436283,0.4217999,-0.7645929,-0.50006926,-0.69955146,-0.54598814,-0.5301483,-0.84415853,-0.73905724,0.11843266,-0.6081289,0.15017715,0.2758565,0.7881658,-0.28521276,-0.53564405,0.4658823,0.55189943,0.2421627,0.060626984,-0.8845959,0.5643451,-0.14775515,-0.36598325,-0.62218547,0.48107317,0.98645115,0.52114725,-0.3386889,0.75510734,-0.32323086,0.548855,-0.95131606,0.21209592,0.29992646,-0.5564428,0.03798798,-0.41406086,0.42972323,-0.19081107,-0.017229425,-0.39763588,-0.5904322,-0.5232304,-0.76695067,0.7975505,0.66460663,0.9980488,-0.36595726,0.3019476,-0.10203099,0.2714839,-0.63282657,0.7775458,0.4720097,0.8278203,0.6730795,0.98229605,0.37751883,-0.30694947,-0.79466105,0.5408779,-0.7148231,-0.71375686,0.80429465,-0.7898817,-0.19983129,-0.54885215,-0.29973647,0.34464055,0.9550659,-0.12304187,0.51207656,-0.23186304,-0.2986693,-0.25611687,-0.18369913,0.27157283,0.59581304,0.93589616,-0.054909945,-0.3908658,-0.073918834,-0.49874112,0.1303778,0.49528795,0.6496522,0.8697014,0.67239684,0.4842895,-0.5522594,0.764665,-0.7818073,-0.4598281,-0.5990232,0.25695434,-0.53385514,0.40688753,-0.5432069,0.26742303,0.96019536,0.13976948,0.7002776,-0.41618562,-0.96390843,0.019841433,0.89912415,0.5278902,-0.91091466,-0.6849002,-0.04320545,-0.8258047,-0.17655973,-0.6587937,-0.4193418,0.38013065,-0.8590387,-0.14536773,-0.831918,0.4456647,0.0289779,-0.8285631,-0.3412398,-0.3434945,-0.122269414,0.1915878,0.4197292,0.066212885,-0.7186689,-0.1572106,-0.2440281,0.082873344,0.2594509,-0.8045559,-0.9375603,-0.2418313,0.593153,0.122937724,-0.7267394,0.70734006,-0.31628206,-0.09337875,0.8727322,-0.492154,0.07449403,-0.6804844,-0.7080357,0.1553149,0.27975526,-0.3586657,-1.2450238,-0.1914923,-0.10930745,-0.059837345,0.69847834,0.622677,0.0015394756,-0.68356395,0.037536576,-0.1239946,-0.46886176,0.50050807,0.048297644,-0.14558935,0.5131468,-0.25842202,0.9216637,-0.70991373,0.3838495,0.6022016,0.88431317,0.34101567,-0.687768,0.038751163,0.49371016,0.06673818,-0.5412466,-0.8993919,-0.3806601,-1.023476,-1.1545775,0.2214986,-0.8024495,0.07908629,-0.34836268,-0.8456888,-0.92971045,0.7533678,-0.124181084,0.24468938,-0.59301853,0.47986105,-0.30264863,0.8526792,-0.49295586,-0.29862472,0.30506936,0.057926096,0.36251423,0.6393505,-0.7879671,-0.5747143,0.7311874,-0.10957521,0.2237193,0.34151557,0.6947226,-0.9959178,0.2536692,-0.584344,0.27358204,-0.36391816,-0.93018824,-0.72049296,-0.5531241,0.44600344,0.7429531,-0.5520243,-0.42936683,0.20514557,-0.09744203,-0.32835746,-0.64472544,0.68197453,0.093501486,0.91839653,-1.0265023,-0.09057254,0.67370903,-0.10176554,-0.88291895,-0.92262405,0.32975793,-0.8254982,0.44448835,0.91207707,0.3145821,0.4804445,0.7756022,-0.4932755,0.4364362,0.9348799,-0.9695185,-0.5740608,-0.27998862,-0.2165664,0.4300244,-0.9581195,-0.95612204,0.28444257,-0.10234662,-0.031107686,0.07621522,0.5388708,0.3340265,-0.4627201,0.5093509,-0.5746301,0.67863375,-0.33895326,-0.9179521,0.2995758,0.22945456,-0.19366592,0.4547941,0.55975884,-0.029383361,0.67684376,0.75604284,0.75415033,-0.9462053,-0.49794045,0.63556445,0.90262294,-0.19859743,-0.9118266,-0.30968487,0.5636799,-0.15004642,0.23991023,-0.69681567,-0.6784864,-0.8262728,-0.9758337,-0.3953759,0.2964661,0.25635535,-0.7629698,-0.71648794,-0.5445953,-0.33572596,-0.37448943,-0.7884494,0.0360077,-0.18276808,-0.19111618,-0.70307356,-0.19630727,0.18376176,-0.42733678,-0.13944475,-0.15435456,-0.13989973,-0.69470644,-0.2287084,0.53152794,-0.59490335,-1.0009463,-0.36374915,-0.14688955,-0.03316714,0.49598068,0.78662324,0.40783206,0.10056875,0.052338645,0.6873216,0.59560984,-0.049991116,-0.74799395,0.21149912,0.643279,-0.8531715,0.30665118,-0.50848645,0.47180462,0.6275027,-0.6389429,0.3020764,-0.010599721,0.7904265,-0.5128825,0.18949054,-0.0767776,0.6460914,-0.37438962,0.16092548,0.88758576,-0.79034185,-1.0359045,0.5499183,-0.23119974,0.6364185,-0.6210723,-1.0815144,-0.6299709,0.48726958,0.55830574,0.702726,-0.16194788,0.34944728,0.85052425,-0.16699688,0.93592256,0.52358466,0.6312785,-0.03989976,-0.5114417,0.1435945,0.31971002,0.26540273,-0.9666449,0.40705082,0.54599947,0.85681814,-0.5195215,-0.6334933,0.4148454,-0.72825897,0.25498125,0.51324725,0.45730013,-0.887082,0.30128035,-0.19430983,0.6568954,0.6275842,-0.0535232,-0.44569954,-0.8132714,-0.9516909,-0.7234053,-0.6524579,0.49846268,-0.6674226,0.43703938,-0.016568422,0.3705728,-0.6220528,-0.3379232,0.6072639,-0.42007738,-0.6965918,-0.7081708,-0.18217051,0.48234627,-0.51409304,0.503028,0.11788103,0.4808255,-0.6022413,-0.85865337,-0.70397246,-0.5089606,-0.58595115,-0.13836151,0.919306,0.37737507,0.32913852,0.32638422,-0.33230174,0.46551505,0.95551836,0.8400762,0.66593194,0.23181605,-0.8486769,0.99608034,-0.1587133,-0.6875842,-0.16953295,-0.08858969,-0.7516556,0.18392,-0.9295038,0.79621106,-0.4640383,-1.0805917,-0.4302566,0.22765799,-0.689278,-0.030836022,-0.12628266,0.598454,-0.0037273753,0.27181816,0.6664422,-0.65619993,-0.91765606,-0.44630018,0.5391136,-0.8009391,-0.8217418,0.14700198,0.6131404,0.16899726,0.29979327,-0.9357019,0.0018380492,0.7360937,0.8059911,-0.24248256,0.041576926,-0.9336501,-0.3682724,-1.1800413,-0.06788557,0.35239846,0.19603404,-0.3131767,-0.6830629,-0.9917956,0.6644705,0.101725906,0.45022938,-0.4701032,-0.85003966,0.24438845,-0.5408041,-0.3799398,-0.74864054,-0.6823373,0.0981493,-0.8893725,-0.108122386,-0.7494568,-0.60046065,0.6970516,0.09464691,0.85272825,0.51121986,0.43143788,-0.5008098,0.60523427,-0.11264193,-0.08111998,-1.0120294,-0.8577399,0.15841074,-0.72940534,0.7994693,1.05001,0.9906091,0.84064865,0.4921928,-0.7193603,-0.14329666,0.86893415,0.83414745,0.30521202,0.43928072,-0.5526912,-0.8990732,-0.67716557,0.12975991,-0.03178141,0.6341667,-0.53054774,-0.10339137,-0.07873683,-0.55204624,-0.31600243,-0.85307986,0.537365,0.10484173,-0.7426552,-0.6793136,-0.24803787,-0.8546376,-0.64608765,-0.14799832,-0.7424878,0.6695642,0.34432933,-0.0043593487,0.46579266,0.42630386,-0.21344137,0.31468207,-0.13838878,-0.2101614,0.46868548,0.34101385,-0.88108945,-0.8589671,-0.45324135,0.6451746,0.11345994,-0.6540242,0.5805629,0.1023175,-0.85769,0.35383347,-1.0121702,-0.7355304,-0.82806575,-0.11538352,0.075042605,-0.36573935,0.5988287,-0.48181266,-0.69401693,0.10815958,0.3421495,0.6584027,-0.01556468,-0.59002984,-0.121202305,-0.964022,0.08782159,-0.025658974,0.17399877,-0.45328674,-0.7266425,-0.92464596,0.59306616,0.6960578,-0.6891701,-0.07700985,-0.013577525,0.3006914,0.11881808,0.7214564,0.5174691,-0.57559794,0.57295674,-0.50816584,-0.87086564,0.36709866,-0.6717079,0.97690636,-0.54454136,0.68840337,-0.5863056,-0.9390547,0.33666834,0.19977407,0.13684477,0.9018522,-1.0497247,-0.1906903,-0.15571374,-0.15842609,0.6504892,-1.028832,-0.5133582,0.4377463,-0.5454263,-0.15324059,-0.71357185,0.84126836,-0.8268038,-0.09746618,0.41997877,0.9014403,0.5670473,0.9050111,0.42569903,0.024805307,0.20249557,-0.13341618,0.7064254,-0.372869,0.4906058,-0.70888776,0.5298323,0.5327973,0.5018211,-0.5297648,-0.7193289,0.08497809,-0.4668347,0.6813123,0.7313035,0.32845443,0.010761134,-0.30798674,-0.28248113,0.19162995,0.28609842,-0.723776,0.45540786,-0.39524195,0.4491338,-0.87229264,0.6084907,0.014484167,-0.47262383,0.873018,-0.17613697,-0.69755304,0.65496373,-0.65393835,-0.9045013,-0.026889615,0.5007731,0.41480526,-0.082173824,0.15639865,-0.5899103,-0.85611475,-0.31619033,-0.1383979,-0.21438684,0.905543,-0.3274549,0.6144829,-0.33528605,0.14406943,0.9779372,-0.15943386,-0.5046824,0.6947254,-0.6752872,0.10943508,0.7867763,-0.53684664,-0.61514807,-0.096698046,0.6416421,-0.63736963,-0.69625384,-0.8376676,-0.9632151,0.12472342,-0.104511425,-0.8608844,0.9463088,-0.5439478,-0.49402243,-0.79576176,-0.41340163,0.5469443,0.74295276,0.5790768,-0.4111333,-0.3560666,0.44582886,0.52115023,0.53956115,0.6473808,-0.07928133,0.9899821,-0.79792833,0.9544046,0.23160124,-0.4448638,0.5891235,0.48137712,-0.8343711,0.015519567,-0.26424602,-0.3893095,0.14425065,0.723283,0.13018893,-0.53045017,0.5659321,-0.9234107,-0.3001995,-0.854135,0.31521434,-0.85784256,-0.27909485,-0.21797585,0.63324696,-0.50629455,0.24846482,-0.3249724,-0.20604515,-0.8918147,-0.3491845,0.92527413,0.38197422,-0.8737376,0.71456146,0.8164699,-0.59151816,0.74610853,0.781419,0.19371329,0.47405618,0.6308653,0.27332938,-0.3672702,0.8310779,0.23784278,0.9896432,0.30279985,0.6338328,0.7438297,0.14581914,0.5168979,0.4536974,0.84803504,0.9376049,0.3813219,0.42070198,0.7264688,0.93693924,-0.5856521,-0.29500294,-0.33876324,-0.6876464,0.017846346,-0.38048935,0.841439,-0.7851157,-0.3948741,0.71678233,0.5904038,-0.2883246,0.4933672,-0.8331125,-0.68845534,0.607872,0.7263231,0.077777386,0.13045382,-0.25138617,0.013962984,0.18130493,-0.0022313595,0.072240114,0.08817315,0.6590836,-0.26803565,0.62607336,0.65455675,0.9750061,0.5858638,-0.69805145,0.92948556,-0.5969422,0.8072965,-0.571296,-0.804533,0.5880835,0.43105125,0.7534872,0.59902287,-0.7354533,0.43419003,-0.6273855,-0.64567626,-0.81092024,0.852211,-0.025012016,0.3032441,-0.6069219,0.52125716,0.60774755,-0.3616197,0.23786592,0.9424505,-0.42085528,-0.11772871,0.49883938,0.111501455,-0.74810696,-0.3610587,-0.15821052,-0.96587896,0.16697352,-0.7461132,-0.15588012,-0.93138576,-0.9914573,-0.18116103,0.389142,-0.8700443,-0.45856234,-0.28662542,0.9484408,-0.5639802,0.66211873,0.3745327,0.51015943,0.21538122,0.8283878,-0.61469674,0.62445474,0.57802916,0.48630548,-0.08192444,0.24730349,-0.18450928,0.078101635,0.33039021,0.4869981,-0.8904079,0.972991,0.8277516,0.56498045,-0.4605469,0.15871122,0.07688462,-0.25469413,0.7587388,0.85014087,-1.0053848,-0.6484259,0.28548717,0.76204705,0.89202136,0.29629257,-0.7850435,0.5117949,0.15151525,-0.07227254,-0.38592625,0.8051777,-0.40709352,-0.13227701,-0.41680074,0.37292957,0.85266507,-0.5006702,-0.31349963,-0.018363599,0.6131835,0.038109783,-0.50339967,0.696333,0.77167493,-0.14226635,0.66565,0.6731056,0.18146126,-0.09014752,-0.786535,0.8552334,0.43831763,-0.8061269,0.51678795,0.55228305,-0.31125182,0.19364376,-0.37547946,0.8139415,-0.86195683,0.5720172,0.85457945,0.32267076,0.7773875,-0.39590746,0.098802626,-0.27145028,0.57727075,-1.0335513,0.6936754,0.74260455,-0.6772391,-0.78836536,0.56499195,0.58845514,0.19704115,-0.7320219,-0.39929932,-0.17971335,-0.5271584,0.85126007,0.1521948,-0.84655046,0.80070484,-0.47755623,0.28625008,0.19792914,0.6650355,0.30003262,-0.8417528,-0.37453732,-0.111704156,-0.09545791,-0.15274717,-0.6164635,-0.20618398,0.06472773,-1.0784484,0.6918267,0.19652627,0.8975988,0.8505981,0.31030852,0.40820414,-0.13461314,-0.6929914,-0.11728285,-0.44619632,-0.921728,0.55213577,-0.24803425,-0.0035727508,0.86397636,0.13563323,0.99143267,-0.77995896,0.792614,0.17720065,-0.84880704,0.62816215,0.3571243,0.14651878,-0.14741185,-0.20676553,0.7487256,0.61233103,-0.81514764,-0.20412484,-0.011048236,-0.15850459,0.71418935,-0.22832598,0.9848553,0.6362172,0.46198672,0.15741119,-0.06684298,0.25890246,-0.6751056,0.10410695,-0.49156648,-0.7607284,0.5975332,0.23286176,-0.6318188,-0.4194442,0.36746183,-0.827711,-0.8893391,-0.6233562,0.6582348,-1.0371822,-0.4493862,0.04685441,0.5313185,0.8275825,-0.56025255,-0.21939816,-0.9331834,-0.4036772,0.3312082,-0.9130401,0.14918914,0.50119334,0.49276552,-0.1095118,-0.89177686,-0.034711074,0.24052125,0.47289598,-0.65513647,0.43419194,0.28508353,0.97943586,0.5476372,-0.78921425,-0.011757865,0.55390495,0.0669534,0.45473152,-0.4486102,0.3230809,0.00030030162,-0.52152294,0.49197185,0.31007674,-0.015843842,-0.057929553,-0.6671514,0.46052003,-0.6370002,-0.48683625,-0.96622896,-0.9226715,-0.6628626,-0.90845895,-0.7302654,-0.26355666,-0.01875229,0.60643554,0.08647013,-0.042675152,-0.32515028,0.75885665,-1.0595988,0.38063565,-0.9667245,0.8303719,-0.11554384,0.25226006,0.56479746,-1.1522057,0.35370913,0.53063196,-0.024246315,0.34434298,-0.22245753,0.45591828,0.53508085,-0.79652137,0.21804936,0.18881737,-0.3774223,-0.67535305,0.7786202,0.898022,0.82905746,-0.62907815,0.27042198,0.27132395,-0.40663546,0.60012484,-0.25712466,0.58212113,0.75640225,0.74127007,0.18317409,0.27725554,-0.23781453,-0.59904224,0.12476112,0.6797063,-0.82386273,0.50435036,0.7154456,-0.80051774,0.4996659,0.69647384,-0.9627532,0.83107835,-0.8928551,-0.62523484,-0.39762807,-0.27073222,0.87610835,-0.20483017,-0.89106655,-0.68557775,0.92816406,0.21611544,0.2077556,0.086925335,-0.09107153,0.2858769,-0.31819755,-0.8440712,-0.7907491,0.3779075,-0.16491733,-0.6962411,0.16476426,-0.39015883,-0.09171052,0.15777008,-0.49385595,-0.34221962,-0.43166417,0.7625622,-0.5087743,-0.035353366,0.87870157,0.9047399,0.42703027,0.28203416,-0.771698,-0.93946713,-0.33847243,-0.6544379,-0.5270004,0.03463486,-0.11481487,0.8735601,-0.027158873,-0.55316025,-0.17797694,-0.78735065,-0.0029404506,0.1596025,-0.5001197,0.014542527,-0.59809333,-1.0287424,-0.6502734,0.5792687,-0.22560562,-0.48743877,-0.41372344,0.7297918,-0.14909133,0.8612242,0.9808376,-0.39921546,-0.8546257,0.511518,-0.41108778,0.3041692,0.17771828,0.38276282,-0.2699618,0.18496908,-1.1431317,-0.59125227,-0.5960468,-0.66435564,0.2742128,-0.5734578,-1.179891,-0.16809824,0.16513285,-0.72920537,0.33161524,0.32189673,0.38788015,0.4217813,-0.32513326,-0.33295256,-0.45448846,-0.19135547,0.94386363,-0.98457575,-0.7607548,0.031343807,-0.3397486,-0.7621878,-0.73884076,-0.2680156,0.55123913,-0.24884556,0.36312437,0.3296565,0.7071496,0.39359376,0.6725057,-1.0566546,-0.2205828,0.7262094,0.5691874,-0.95008385,-0.27363056,0.42578024,-0.7311235,-0.5505198,0.9245369,-0.71509707,0.35778537,-0.97785616,0.34322667,-0.8463676,-0.9534383,0.76788676,0.7903327,-0.57974446,0.48523638,0.90322757,-0.11002314,-0.37769344,-0.40329567,0.06323678,0.22701189,-0.047793854,0.57812,-1.1963003,0.2822242,-1.1691141,-1.0241688,-0.8863251,-0.8017083,0.5483294,0.0061424086,-0.08025839,0.58814526,-0.3515137,-0.76752037,-0.6213021,-0.49885154,-0.8676245,0.74861884,-0.6882396,0.272539,-0.6626635,-0.03656421,0.5970326,0.4085447,-0.95050204,-0.97314364,-0.04642285,0.113186166,-0.13088557,-0.8323919,0.40334082,-0.11175992,-0.32022107,-0.9502124,-0.25884366,0.28027228,-0.2162965,-0.65199244,0.63920856,0.90241736,-0.049180426,-0.38852617,0.2687377,0.11100268,0.5667863,0.29268146,0.8791604,0.6365617,0.5715054,-0.9838629,0.44498035,-0.6993241,0.05346713,-0.73474157,-0.044207104,-0.64899063,-1.0735569,-0.46512544,0.5368262,0.44702616,-0.7609073,-0.91496253,-0.6181336,-0.9953909,0.54478306,-0.33762035,-0.96655834,-0.66560847,-0.3574124,-0.59602493,-0.9374325,0.30365252,0.45401883,-0.3659649,0.735407,-0.22452864,-0.95301545,0.89034355,-0.3367169,-0.64172125,0.47880736,-0.99661165,-0.3592703,0.24996556,-0.4149704,0.2634134,-0.50915205,0.23533873,-0.879444,-0.026901824,-0.6076024,0.060826793,-0.8555756,0.85304785,0.63826925,-0.50823605,-0.9159874,-0.121530235,0.6282888,-0.5915873,-0.8146162,-0.88489246,0.8948938,-0.03737105,-0.42465842,0.78124475,0.56935734,-0.4273217,-0.9549906,0.21279104,-0.25536174,-0.36555037,0.046918143,0.43427774,-0.2517325,-1.2997174,-0.2035918,-0.8615537,0.94553196,-0.26584178,0.13802277,-0.62855303,0.089719996,0.35085353,0.3624849,-0.6649211,0.02114556,-0.8577268,0.095697165,-0.24074316,0.06466407,0.2769663,0.59554017,-0.18485701,-0.09812925,-0.60323715,0.45609072,0.7572108,-0.42504692,0.6875897,-1.0024375,0.13383275,-0.50307184,0.726699,-1.0980195,-0.9621625,0.034833703,-0.71617115,-0.47418246,-0.76494837,0.41286904,-0.91170824,0.8590297,0.31795686,0.21715839,-0.29537082,-0.5380006,-0.9747057,-0.15917979,0.34652078,-0.196709,0.13273421,0.14380804,0.9443844,0.6800902,0.18493506,0.5057346,0.26711267,0.22775115,-1.1289353,0.15439607,0.08464569,-0.22694318,0.79537576,0.8427842,0.4891391,-0.27836332,0.7107933,0.5809567,0.68297344,0.8570649,-0.040531754,-0.034659386,0.28750372,-0.23820972,0.75397587,0.9021063,0.38488346,-0.7802024,-0.90148276,-0.926225,0.22741674,-0.6725771,-0.34370473,-0.590773,-0.69156164,-0.50524145,-0.7504606,0.3507815,0.1038489,-0.07463947,0.15781954,-1.0098233,0.0301572,0.92597723,-0.45598626,-0.9056678,-0.25327116,0.3346555,-0.49363115,0.45408034,-0.59458876,0.32497787,0.76831746,0.11945915,0.21241276,0.97709703,0.3824823,0.4888215,0.20290448,0.04927603,0.3123513,-1.0208764,-0.7816051,-0.83613497,-0.011531434,0.5731666,-0.60365164,0.7329114,-0.2409946,0.11852785,-0.5698472,0.47467518,0.8550173,0.5306923,-0.2669446,-0.9864008,-0.651618,-0.73063135,0.5054889,-0.69988084,0.20625782,0.08483195,-0.22279358,-0.99505717,-0.07924543,0.069326386,-0.42420495,-0.27124503,-0.11160062,0.0458819,-0.9485385,0.49134284,-0.80158484,-0.15843426,0.614585,-0.08938876,0.77946615,-0.27887988,0.6274956,0.21563877,0.79956514,0.4852645,-0.799998,0.8096411,-0.87756515,-0.68087125,-0.84501386,-0.63553476,-0.49665427,-0.40273666,0.8830192,-0.4784305,0.87704724,0.78959703,-0.30146807,0.3784079,-0.4517267,0.7470487,-0.013188643,-0.021015787,0.7922349,0.29541507,0.81437796,0.049626272,-0.0660005,0.42179224,0.036578167,0.91909736,-0.73957473,-0.5779936,-0.783622,-0.6202469,-0.33849072,0.79508376,0.7969575,-0.90905976,0.2269957,0.55201626,-0.67319155,0.985516,0.8610922,0.9653047,-0.5526901,-0.42985415,-0.9189229,-0.42414,0.76409936,0.39811918,-0.6126312,0.8582501,0.79711235,-0.85322714,0.1387756,-0.40979564,0.14475657,0.67972285,-0.6838863,-0.4217286,-0.32383108,0.4712944,0.21926546,0.8873904,0.51084185,-0.64416575,0.5983944,-0.9794364,-0.6801419,0.6305573,0.0065875053,-0.037418604,-0.09942579,-0.15184355,0.5349839,-0.510936,-0.85559034,-0.35413772,-0.030999778,-0.015653966,0.0032717932,-0.5603471,0.7380767,0.026018381,-0.7766526,-0.39662004,-0.95925164,0.831254,-0.5320184,-0.8772762,-0.8091545,0.05753994,-0.8138056,0.33396935,-0.89374685,-0.06067872,-0.99682,-0.4110775,-0.6427872,0.018064264,-0.6456969,0.28351748,0.012835604,0.23578031,-0.3195057,-0.65353954,0.017121922,0.5761452,0.5113402,0.56964725,-0.96191007,0.07068411,-0.8317872,-0.06561063,-0.2023123,0.18444349,-0.894902,0.42703962,0.7485409,-0.92340136,-0.16252565,-0.45865893,-0.012979031,-0.19377899,0.67987615,-0.7946031,0.876876,-0.18177935,0.22093804,0.3143272,-0.18249547,-0.39776325,0.3883158,0.33526394,0.06225121,0.88418317,0.065519586,-0.25437194,-0.7132899,-0.47326913,-0.636292,0.61844504,0.75175154,-0.91252863,0.71974874,0.7645165,-0.23047787,-0.77653766,0.60018563,-0.55635786,0.9518392,0.75909066,-0.8200731,-0.10751425,0.6226751,0.4793376,-0.8731991,0.97677815,-0.34081492,-0.8903019,-0.79691714,0.45619884,0.6881432,-1.5039884,-0.69739234,-0.9653225,0.057081893,-0.9065664,-0.5762939,0.70236826,-0.8446582,-1.0351771,0.7927753,0.1008849,0.06959905,-0.66357243,0.8831277,0.8056805,-0.18621656,0.9486644,0.30702922,0.454081,-0.7545323,0.99548084,-0.45200926,0.6808683,-0.12113033,1.1223127,-0.40728202,-0.32030565,-0.7570787,0.529872,0.441332,-0.030552302,0.93690014,-0.14737828,-0.613514,-0.63923264,-0.106338985,-0.0060222843,-0.30569738,-0.75690544,0.7882808,0.5493714,0.2153779,-0.63133216,-0.019459724,-0.333063,-0.30956167,-0.7913059,0.042618074,0.27360502,0.5348203,-0.41558182,1.4416367,0.1320538,0.14787565,0.88450646,1.6692789,0.34336856,0.41500476,1.4654478,0.68101645,-0.15803856,-0.33043805,0.7571378,0.49956638,-0.30363405,0.46536142,-0.12392332,0.16113909,0.32099864,0.5317467,-0.6102042,-0.68893456,-0.09651022,-0.20905265,-0.56786644,-0.30508867,-0.13284324,0.33009306,0.6867741,0.93600464,0.29716176,1.7578771,1.4788685,0.4228859,0.28890964,1.6791754,-0.32713252,0.38923392,0.7572109,1.0349176,0.9538754,0.27841997,-0.009804224,1.2485855,-0.2128113,1.0405288,0.0072988323,0.2364749,-0.59585404,0.051992767,-0.3758577,-0.83211046,0.3286652,1.0269774,0.6650367,-0.22758137,-0.5986169,1.3313699,0.69387275,1.230416,0.9470985,0.10708119,0.9912869,0.49659398,0.19239227,-0.23802379,0.39113566,-0.011152837,1.466337,-0.294483,-0.019312354,0.24720319,1.026562,-0.12580197,1.0239111,-0.77658725,0.9047096,-0.42993867,0.93608135,0.81357014,-0.7593947,1.1971269,0.26673836,1.509382,1.0157572,1.1397551,1.9110013,1.4602989,0.19995685,0.47896203,-0.27313438,0.08690586,-0.32377592,1.4032749,0.9377401,0.4709798,0.085767746,0.8009847,0.10711196,1.7954218,0.7574413,-0.13608198,-0.5484404,-0.8597899,0.9162453,0.06034932,-0.10262655,-0.56662065,0.60356206,1.2813867,0.79294306,0.44789773,0.98892736,1.5578644,0.023716068,-0.0992593,0.6152186,-0.07799815,1.0875008,1.8585495,1.829212,0.3195317,0.032253303,1.0359483,0.43544784,1.6570551,1.7683079,1.1359522,0.8318003,-0.020161176,-0.87616587,-0.2796752,-0.110190466,0.8002031,-0.06311236,-0.83848304,0.8951837,0.8734466,0.99916667,0.6643711,-0.4099227,0.7556571,-0.2989732,-0.07027525,0.341865,0.052713156,1.9651973,0.45988545,1.2422422,0.76319206,1.5190723,0.3951526,-0.5796422,0.702741,0.05685484,0.30266437,0.14365834,0.905019,-0.037323773,0.67802805,-0.1271841,-0.76490146,-0.3032479,-0.15140274,-0.9336859,-1.051005,0.0815764,0.6373366,-0.18055058,-0.8536818,-0.11979217,-0.8264824,0.29794997,1.0026437,0.20659865,0.07914563,0.32110083,0.3394518,-0.9462362,-1.240139,-0.40387228,0.20654915,0.02355281,0.048161615,-0.5200612,-0.2973013,-0.004979277,-0.9462377,0.57163674,0.47397715,0.54478055,-0.75015837,-0.98567975,-1.5018432,-1.5372113,-0.84603995,-0.8066817,-1.4574159,-1.4315574,-1.6248089,0.7357917,0.3463797,0.381923,0.2644002,-0.85762596,-1.2134908,-1.5326504,-0.74218994,-0.18301311,-1.0523325,0.20947714,-0.32641655,1.0002406,-0.18647242,-0.97519046,-0.63933814,-0.0899265,-0.36383966,0.45210323,0.05675324,-0.054733,0.09310919,-0.36013252,-0.55794394,-1.3083704,-0.4375535,-1.6000655,-0.3920601,-0.13237508,-0.6428882,-0.21781482,-0.93218017,0.15625516,-0.31644818,-0.73804,-0.13144769,0.73593557,-0.15327546,0.6937643,-0.48274365,0.72247076,-0.5322999,-0.71909165,-0.45299196,-0.9676196,-0.07600066,-0.8774431,1.0266033,-0.31838882,-1.201208,-1.2289478,-1.4470402,-1.1494946,-2.1532362,-0.5761965,-1.2531677,-0.3892954,-0.6060292,-0.18960287,-0.55849147,-0.30006933,-1.660178,-0.71206874,0.19373035,-0.77379405,-0.053030737,-0.36405557,-0.9520336,-0.07262084,-0.7093177,0.47510892,0.07281847,0.30165023,-0.24244332,-0.015684776,-0.2016045,-0.9674512,-1.1229612,-1.5650252,-0.9729749,-1.0858902,-0.17433682,-0.29530713,-0.71421665,-0.04720913,-0.4791348,-1.0098649,-1.5877855,-1.6835419,-0.715831,0.70120966,-0.77515364,0.4460131,-1.0499619,0.46079117,-0.48545444,-0.5966205,-0.5453093,0.3485342,0.9771023,-0.009743687,0.92957246,0.601024,0.79487723,-0.8401708,-0.43202907,0.081512876,0.26155874,-1.2432411,-1.0503527,-1.4912542,-0.3829627,0.7949728,-0.8702199,-0.43848446,-0.005084902,-0.18579732,-1.0778931,0.31869376,-0.41227296,-0.7229644,-0.6883805,1.018401,0.36818916,-0.21726654,0.04362301,0.08409288,0.41165712,-0.6347463,0.883777,0.25868633,0.3788492,-0.35249004,-0.052362498,-0.30841824,-0.24072647,-0.0405209,-1.088595,-1.5199298,0.16315909,-0.43151945,-0.64213085,0.038252667,-0.3455265,-0.07192127,0.18307163,-0.018426016,0.15791681,0.49200994,-0.28006446,0.90821517,0.1044443,1.2000141,-0.13633071,0.7168765,-0.49659204,0.3476162,-0.66521233,0.87362397,-0.28802788,0.82653236,-0.2072863,1.3411633,0.67566353,-0.78298026,-0.40238488,0.5120923,-0.34643558,-0.24230517,0.062177043,0.43147466,0.21300173,0.6194308,-0.1481325,0.08594957,-0.6736285,0.5305045,-0.50903106,0.83574504,-0.62109536,0.29595003,-0.80278903,-0.71972764,0.37805125,0.10395908,0.9925891,0.8395547,-0.33413213,0.30714437,0.36009127,0.753087,-0.106368065,-0.2860817,0.318249,1.2390883,0.9938328,-0.1425804,-0.0885266,-0.6319676,0.056597926,-0.16482982,0.77440804,-0.67713624,0.50852746,-0.3960746,1.084395,1.5672245,1.0514184,0.4072441,-0.54500353,0.8260476,0.7796061,-0.44422483,-0.48853445,-0.7791477,-0.6219361,-0.53607863,1.0082767,1.6750323,1.6314297,0.5082825,0.5723536,0.9757889,-0.44628897,0.26218742,0.48611882,-1.114933,-1.0800487,0.2460327,-0.6479358,0.6054941,0.5662209,-0.568135,1.1276528,1.4873993,1.1704825,0.23889184,0.94226116,-0.43546024,-0.76792836,-0.1495645,-0.47385126,-0.09714081,-0.7890752,-0.120945394,0.8712028,0.024384296,0.53271675,0.30442253,0.77788055,-0.15500866,-0.34468147,-0.1526895,0.23133111,-0.17957976,0.63227004,0.7509278,-0.608825,-0.6437194,0.030202823,0.89759386,-0.422568,-0.10512819,-0.3440723,-0.67258215,0.5311119,0.509052,-0.045662165,0.23734283,0.7746681,0.5977664,0.6514934,0.1318081,0.35549122,1.1059178,0.49776798,1.1680964,0.4531191,0.7082697,0.60109144,1.0891244,0.4332168,1.6538904,-0.055201843,-0.41589424,0.3146369,-0.1516523,0.8006954,0.96944714,1.216549,-0.2449674,-0.16658683,0.9397491,-0.41523084,0.98026174,-0.62115264,-0.474622,-0.85782313,-0.17561588,0.12902638,-0.6906102,0.28205937,-0.2004069,0.6982413,0.74011546,0.82305026,0.4637233,0.8896445,0.80882466,2.0163243,1.2499199,1.5727532,1.5478979,0.43009594,-0.21372832,-1.0173333,-0.30457854,0.6420681,-0.18951878,0.24459058,-0.79838276,0.8147866,0.8320949,0.6122899,0.4326675,0.41386342,0.115484186,-0.27995008,-0.85571194,-0.3849077,0.9796888,0.49961114,-0.3728056,0.37150985,1.108631,0.2509671,0.3966554,-0.34049124,1.4945264,1.661799,1.4858253,0.2230076,0.716743,-0.54328567,-1.1785884,0.057314288,-0.010959365,0.39592907,0.40614346,0.49693078,0.8720331,0.7337785,0.17837667,-0.9830792,0.89924604,0.18935928,-0.6027848,-0.19406654,0.24761468,0.58588487,-0.6953259,0.27808434,-0.8569377,-0.9865318,-0.63871074,0.8666615,0.2923738,-0.07851092,-0.19847837,-0.12468351,0.71511155,0.6411396,-0.0809962,-0.6244317,-0.11077039,-0.8347765,-0.02327464,0.40657052,-0.013239006,0.860379,0.84815836,0.33417106,-0.22843814,0.82098836,0.6130608,-0.6171276,0.16082384,0.6462839,-0.13877425,0.3408603,-0.9408715,0.52559626,0.34373727,0.51057845,0.7346974,-0.28070426,-0.30189285,-0.13269666,-1.1386191,-0.96216327,-0.712986,-0.40662673,-0.47987965,0.8380528,-0.82720566,0.95276606,-0.07447529,-0.75336266,0.8646085,-0.64217496,-0.7715802,-0.019996881,-0.41540313,0.062724195,-0.05542395,-0.86668384,0.28963587,-0.79183084,0.87046164,-0.61009645,-0.46421707,-0.06931344,0.3015235,-0.5805523,-0.17275101,0.19043046,-0.7425194,-0.75560445,-0.8586469,-0.26840055,0.0770716,0.51646537,0.2745118,0.8473871,-0.2928393,0.405401,-0.63245916,-0.7940426,-0.51071215,-0.88577056,-0.076380014,-0.65809035,-0.7533636,-0.100571394,0.08195472,-0.387367,0.9215977,-0.1311512,-0.7079459,0.4080816,0.60055447,0.8248007,-0.81431603,0.99998045,-0.5100632,0.30124903,0.90231705,0.17821217,0.7274034,-0.3509903,0.70369625,0.13646626,0.0747211,0.6643641,0.095355034,-0.90236616,-0.6590965,0.38623285,0.15166283,0.20656204,-0.88196325,-0.76732945,0.60526717,0.45520884,0.23028259,0.078684494,-0.2688491,-0.4721094,0.69304454,0.6997208,1.061951,-0.2740185,0.9422475,-0.6642551,-0.22408123,-0.3937638,0.60494924,0.61004263,-0.0043509007,-0.42740774,0.7015345,-0.76656055,-0.681335,0.29952025,0.8717103,-0.1303556,-0.16236933,-0.8848002,0.5753346,0.9463356,0.5090753,-0.55485076,0.29965475,0.38083044,0.97444093,0.015596974,-0.038809273,0.33426338,0.20627916,-0.5218292,-0.23341163,0.20078582,-0.50928247,-0.025578586,0.3892406,-0.7045494,-0.22964005,0.348258,-0.3177724,-0.21859312,0.18213892,-0.45568871,0.50385463,-0.57383925,-0.07583946,-0.102759674,0.80627865,0.58313435,1.0435534,-0.14604025,-0.5023905,0.23117752,-0.24045527,1.5532668,0.37704962,0.9383662,0.028087126,0.2396096,-0.5597244,-0.6650247,0.58386624,0.34111005,-0.66518307,-0.22041522,0.20014279,0.9141277,-0.39175916,0.6095321,0.3034854,-0.63100624,0.06527418,-0.12132123,-0.9206919,0.97964233,1.016818,-0.8400737,0.62199414,0.6757036,0.62571007,1.1005689,0.3587369,1.8096217,1.6057014,0.65090936,1.3425313,1.047505,-0.1051227,-0.09819481,0.24508564,0.8730496,0.16114916,-0.6138383,0.092732646,-0.9794537,0.028451553,0.4566622,0.9019909,-0.0156641,-0.8469897,-0.4863843,0.5205189,-0.24709632,0.9042563,0.81368077,0.95139724,-0.3422761,1.725084,-0.0172975,1.8650557,-0.06815077,1.6135631,0.6675249,0.83301556,0.79093915,0.0033095542,1.5432537,0.28852242,-0.76142246,0.48344466,-0.032512814,-0.28599003,0.054420494,0.49026322,0.5695543,0.03174877,-0.27438956,-0.93259853,0.91085607,-0.10751874,0.13211724,-0.09082697,0.12304417,-0.47693723,0.65640336,-0.95422566,-0.5767594,0.9628978,0.34192687,-0.16451141,0.45738724,0.6098061,-0.029925281,1.0921545,1.1094636,-0.42586198,-0.29356065,-1.103618,-0.78111845,0.8852414,-0.22259866,0.9031469,0.23397714,-0.20738363,-0.9605545,0.69293994,0.56532055,-0.6677472,0.769176,-0.057748463,-0.19323151,0.19469313,-1.4157248,-0.73844147,-0.16020691,0.21898393,-0.18138675,-0.043045603,0.7469416,0.24482489,-0.89222705,0.8868013,-0.6262697,-0.42076904,0.15383242,-0.37605295,-0.57771957,-0.4403805,-1.011679,-0.09255409,-0.3342387,-0.9233556,0.41103846,0.81958157,-0.47046167,-0.63130134,-0.84317625,0.31168273,0.5533577,-0.93389136,-0.783181,0.69361144,-1.1827778,-1.3774549,-0.740941,0.40706876,0.52310205,0.17575186,-0.47233167,-1.5386204,-1.859162,-1.6848462,-1.2010446,-0.39575633,-1.1992548,-1.1032331,-0.96887016,0.58902913,-0.77415293,-0.22367758,0.671479,0.48126173,-0.4779191,-0.8002733,0.5615394,-0.75333256,-0.48656577,-0.15311393,-0.76799756,0.5088088,-1.3507736,-0.14341529,-0.5388076,0.4829243,0.43182793,0.9747402,-0.92570555,-1.9747888,-1.6804473,-0.62968355,-1.2587643,-0.9746002,0.2544295,-0.5963047,0.0244782,-0.81147265,-0.011728538,0.009724621,0.28669873,0.3074129,-0.110402875,-0.86935556,-0.5593008,-0.16403867,-0.9605637,-0.20626858,-0.57959324,0.018582026,0.14821059,0.1594475,0.44895914,0.14282459,-0.4418049,0.62808776,-1.5987669,-1.6644913,-1.6486628,-0.9505086,-0.84310156,-0.71965027,-0.6726888,-0.46670777,0.06982413,0.39258733,0.5959893,-0.5578261,-0.6297711,0.5687808,0.5534591,-0.022827966,0.11197281,-0.13000421,-0.922541,-1.088682,-0.9480179,-0.56462026,-0.0047264644,0.47580728,0.91675466,0.91398126,0.17507061,-0.71810025,-0.94948447,-0.5998616,-0.18738021,-0.9055351,-0.44910115,-0.7271897,0.3022464,0.7389836,-0.94608355,-0.59431523,-0.74518734,0.78054285,-0.06434453,-0.8455683,-0.21165818,0.18248159,-0.5952925,0.11911697,-0.29441988,-0.7173513,-0.74021757,0.11942077,-1.0122424,0.59832275,0.8305357,-0.3292972,0.52277046,-0.81590754,0.2463413,0.2950566,-0.5530975,-0.5346828,1.0921683,0.14832458,-0.13450463,-0.08825077,0.7888772,-0.8691757,-0.97307473,-0.1367527,0.1637325,0.55392486,0.34605756,-0.23971832,-0.30239165,-0.017156612,0.40257576,-0.43460777,-1.1051375,-0.71397406,0.8306711,0.06937966,-0.97052234,-0.8306766,-1.4641339,-1.0230086,-0.16894071,0.8437081,0.7621892,-0.14007851,0.9628097,1.0806887,0.83170176,1.2850268,-0.085058324,-0.8796543,0.2545478,0.04260962,-0.36506224,-0.5928558,-0.4966416,-0.63975257,-0.09400925,-0.7854621,-1.0405741,-1.1275331,-0.12671782,0.47706994,0.39586246,-0.49080527,-0.46116716,-0.61759496,-0.9231007,-0.9788362,-0.76800483,-0.09048987,0.9445367,1.1379964,1.0870768,1.1582869,1.2245727,0.9896709,0.59337056,-0.27526948,0.23617956,-0.45824003,0.94800204,-0.6818608,-0.9303837,0.07696199,-0.9234007,-0.61684793,0.6981411,-0.9038844,0.0847163,-0.46205842,-0.7894609,-1.3962423,-0.631301,-0.76343054,-1.0301435,-1.6296086,-1.1971743,-0.4426644,0.13504612,0.68103176,0.7423448,0.008780077,-0.36532706,0.62288314,0.058877163,0.15080528,-0.4353991,0.5162365,-0.5900974,0.7276481,-0.13255368,0.7035629,0.87150353,-0.80679554,-1.4868906,0.2943716,1.1963246,0.07764081,-0.7716163,-1.1489699,-1.2374563,-1.7703047,-1.219881,-2.0101707,-0.47788867,0.46611354,-0.09640022,1.3227699,0.6160073,0.16469252,1.4673734,0.7135991,0.667398,-0.8630047,-0.21329115,-0.6861489,0.09184691,0.1343235,0.029114729,-0.8002572,-0.39424282,0.36234003,-0.31213492,0.030788265,0.39795828,-0.85715884,-0.09854594,-0.84543157,-0.82555395,-1.040055,-1.4095404,-1.2446806,-0.043580145,-1.2829247,0.3392714,0.022771657,-0.041575026,0.8497713,-0.4764007,-0.58101314,0.33201838,-0.95633346,0.8634795,-0.99004364,-0.21456546,-0.4974817,-0.09280503,-0.60736865,0.48219487,-0.43457004,-1.1990674,-0.40460557,-1.3488097,-1.2611532,-1.0672438,-0.5279598,-0.94818026,-0.081471816,-0.063981846,-0.018207612,0.7326221,0.58447796,0.96170175,0.08456553,0.6418623,0.3564289,0.42585242,0.62650317,-0.79810405,0.7759546,0.60523504,-0.096532516,0.13379832,0.6533879,-0.7641502,0.383707,1.3573341,-0.13337061,0.06041673,0.84804714,0.86925286,1.3926791,1.824658,1.7579191,0.7066229,0.40660897,0.59829104,1.1123564,0.81616104,0.642054,1.719334,0.07013357,1.6200927,1.7804711,0.96919674,-0.63777876,0.7995776,-0.71641135,0.6843722,0.31493092,-0.060684636,0.6858896,1.0195856,0.98984045,1.5752242,1.1248829,1.6861857,1.1896036,0.8480733,0.9548949,2.164135,1.3357146,1.4697415,2.5025918,0.5558238,0.0011506613,-0.033119835,1.3570017,0.608256,-0.056393314,-0.04577272,-0.5028776,0.44979513,0.14064138,-0.5077583,-0.27538732,0.08154225,0.6639209,0.79427916,-0.19088642,0.116572015,1.1191667,0.6408844,0.58173513,1.1749723,0.3786093,1.7539452,2.2030559,2.176333,1.4845432,1.6366438,1.9336938,0.65027606,1.2834302,0.12925942,0.31476867,0.18732372,0.8814472,-0.19338511,0.82254654,0.49699146,-0.19936128,-0.7627126,0.5286304,-0.9637909,0.9065776,0.54129505,-0.6608211,0.745849,0.9386491,1.0018374,0.13290672,1.0781858,0.15028057,-0.087936595,0.9865231,1.5230646,0.8400239,0.9727585,0.5673624,0.7117688,-0.8294064,0.9901951,0.49916002,0.20555055,-0.9394927,0.23879436,-0.4838847,0.5197839,-0.29122835,-0.6803117,-0.29737827,-0.046939135,-0.8414128,-0.85569334,0.50247073,0.12875022,-0.32372555,-0.47692597,0.05555461,0.44869965,-0.39785656,0.17330669,-0.14979787,-0.8766328,-0.5001152,-0.48636812,-1.0230035,-1.565307,-0.70139927,-0.80519974,-0.29732394,0.21149532,0.028820142,0.19880506,0.6200442,-0.5553104,-0.078641824,-0.15431389,-0.79337066,-0.47333312,0.5952275,-0.26146078,0.31785688,-0.8707245,-0.7171643,-0.52388126,0.5295156,-0.13010754,0.5768979,0.59640694,-0.7987373,-0.9712496,-0.011160973,-1.015481,-0.560935,-0.57067794,-0.82625735,-0.2842655,-0.21540852,0.26466352,0.34518453,0.74371576,-0.55314326,0.7223533,0.34913293,0.78925884,-0.8518939,-0.031148434,0.8811841,0.9108391,-0.14051235,-0.6479226,0.9509578,-0.60273117,-0.26117578,-0.8665138,-0.020459289,-0.49703902,-1.3395317,-0.10290904,0.030929066,-1.0716254,-0.35464215,-1.6456424,-0.48966414,-0.54786557,-0.34189674,-0.67555815,0.29015207,-0.3927214,-0.79861987,0.8008745,-0.30651882,-0.6903844,0.50985193,-0.099069834,0.5755091,0.96122193,-0.3353727,0.97246456,0.17326334,0.7488519,0.52637523,-0.6110382,0.35378733,0.3521858,-0.85451233,-0.5455797,-0.34918696,0.6818144,-0.9500626,-0.5458563,-0.29545233,-0.6365094,0.37168375,-0.59439427,-0.59271526,-1.0305102,0.79841053,-0.021999154,-0.9787581,0.309528,-0.31544113,0.97881365,-0.55787134,0.95875454,-0.8244591,-0.07749081,0.1435407,0.17406258,-0.9804629,-0.20647922,0.20370246,0.559443,-0.59758115,-0.49304962,-0.83175164,-0.15840569,0.81634146,-0.4394024,-0.23073459,0.028128862,-0.91703314,-0.23408328,0.67417157,-0.20651303,-0.44031852,-0.64649355,-0.8012409,-0.30357838,-0.98615885,0.43939638,0.19108176,0.6446023,-0.4746468,-0.98362136,-0.4396751,0.43539858,-0.5724304,0.02710414,0.11713934,0.01770258,-0.88799524,-0.8712559,0.83404374,0.60973334,0.7924938,0.67523277,-0.70200944,0.88675404,-0.28118038,0.45130396,-0.81821394,-0.5366733,0.4376483,0.46643877,-0.124774456,-0.17178226,0.43435216,-0.9517343,0.31519914,0.7270291,0.28883338,0.2287376,0.32257262,-0.7293644,0.11116848,-0.0032593044,0.8897703,-0.26953396,-0.770014,-0.19841474,0.12286115,0.9305333,-0.54099697,0.3330576,-0.8002932,0.5594777,0.16457112,0.044883415,0.8165092,0.88408273,-0.5530583,-0.42419454,-0.46154046,-0.6628003,0.70495963,0.21561456,0.6610186,-0.38425064,0.35118887,-0.3660331,0.64552635,-0.783196,-0.33004937,0.7284228,0.1010461,0.36046648,-0.77097183,-0.2101485,0.701871,0.20008402,0.055804517,0.036735017,-0.63669044,-0.27897498,-0.77404714,-0.34816244,-0.45704877,-0.7569353,0.9202036,0.42885953,0.6753705,0.8061495,-0.23556876,-0.75335693,0.90790534,0.7944424,-0.11648549,0.27772275,0.33069322,-0.083817504,-0.89012635,-0.24976774,-0.16814387,0.15069953,-0.25341722,1.0975336,0.09529395,-0.23674569,0.9631309,-0.5473623,-0.37484607,-0.042953618,-0.45621082,0.29297844,0.1431801,-0.13760798,-0.04976518,-0.9171841,-0.06084693,-0.2407829,0.36716437,-0.93413424,0.20470595,-0.21051995,0.9823944,-0.36125764,0.4153883,0.02060065,-0.8363429,0.8322398,-0.28688633,0.6502913,0.70174795,0.6021838,0.5844308,0.42309418,-0.4286831,-0.27144492,0.38019934,-1.1472049,-0.32887483,1.0053705,0.7789749,0.21515389,-1.0318536,0.44476056,0.197887,-0.5830441,0.087209426,-0.1684268,0.8928518,0.25641036,-0.042458054,-0.33456573,0.38180256,-0.7316261,0.17297234,0.98970515,1.2723337,1.3529139,1.0838434,0.5671845,0.952718,-1.0457948,-0.4401039,-0.6340817,-0.24731241,0.24039505,-0.55854356,-0.47617424,-0.117803656,-1.2165402,0.63154846,-0.34037998,-0.10836182,-0.47881952,0.060354657,0.7588773,-0.4408753,-0.02229881,0.43731266,0.1820465,-0.1593941,-0.7165558,0.112770244,-0.18663822,-0.045441628,0.93143266,0.52245814,-0.39443174,0.8884805,0.9253871,0.5127611,0.39378697,0.42947513,0.785679,0.44144917,0.0037451535,-0.86220366,-0.37652406,0.23232044,-0.8513514,-0.6223073,0.39163494,-0.6138308,-0.5009103,-0.6593976,-0.045615602,-0.67335075,-0.4536023,-0.5941407,-0.2892324,0.6079659,-0.007788523,-0.2308691,0.33921498,0.9267269,0.5424077,0.09520124,0.7942283,0.10043708,1.0886446,0.18695752,-0.46769497,0.3843358,-0.25695387,-1.2138574,-0.0034347333,-0.8289169,-0.7803827,0.06352796,-0.19879997,0.41283908,0.7673115,0.10072541,-0.008202027,0.9800532,-0.51259875,-0.19980192,-0.35102373,0.5480624,0.3319501,0.5790217,1.1043082,-0.63239473,0.47715974,0.11494442,-0.05337283,1.2732185,0.02409678,0.50225455,-0.43469945,0.4203759,-0.8606529,-0.42049447,-0.20462851,-0.5167127,-0.85391164,0.34189162,-0.16182417,0.18401925,-0.5812256,-0.7445654,-0.47588962,0.41495892,-0.2291993,0.08939142,0.00423867,0.09729777,0.7613878,-0.7712222,0.8546173,0.0022139591,-0.9037644,0.5757452,-0.56303656,-1.0446554,-0.64186174,0.48906404,-0.5896148,0.5715431,-0.057404064,-1.1430064,-1.5500995,-1.4443581,-1.4738753,-1.0920331,-0.56982404,-0.110607974,0.18261027,0.09886809,0.7883972,-0.529862,-0.5604089,-0.28259176,-0.8601935,0.36738104,0.6937758,0.43534705,0.29558852,0.11874926,0.0631243,0.06832506,-0.76959026,0.16373304,-1.0697289,1.239498,0.74197173,0.48475364,-0.8302078,-1.0822774,0.048520673,-0.11334217,-0.031069668,-0.83458644,-1.2950103,0.33241835,0.69055957,-0.17791459,-0.88080156,-0.49733618,-0.84349537,0.7635115,-0.7092037,-0.52830344,-0.12581259,0.7861047,0.17533891,-0.081459485,-0.871655,-0.34761006,-1.1372771,-0.18777281,-0.8759946,0.606132,0.75528795,0.020439353,0.012467455,0.72496444,-0.5169609,-0.26675624,0.43975475,-0.5879263,-0.99468243,-0.5574528,0.24010086,0.8528686,0.90301776,-0.94980156,-0.47163534,-0.68112975,-0.09804951,-0.38979152,-0.3389624,0.8076419,0.11579806,-0.42718607,0.60387814,0.3132892,-0.6448079,-1.7085289,-0.58976334,-0.5335566,-0.9088935,-0.32723394,-0.82954115,0.8348429,0.79092497,1.2410029,-0.035698514,0.20392671,-0.71775126,-0.05351392,0.96245563,0.5143149,-0.27398944,0.42178464,0.54798096,-0.5948637,0.8787807,0.4662988,1.5031956,0.57271594,0.89675343,0.6606685,-1.0965937,